{
    "experiment_config": {
        "mode": "simple",
        "num_categories": 12,
        "p": 0.8,
        "num_nodes": 20,
        "motif_dim": 0,
        "num_train_samples": 5000,
        "num_test_samples": 1500,
        "batch_size": 16,
        "in_dim": 12,
        "hidden_dims": [
            12,
            6
        ],
        "lr": 0.01,
        "use_weighting": true,
        "importance": [
            15.0,
            10.0
        ],
        "phase1_epochs": 0,
        "phase2_epochs": 5,
        "device": "cpu",
        "model_type": "GIN",
        "loss": "BCE",
        "pooling": "mean",
        "gm_p": 1.0,
        "log_dir": "runs/T/BCE/2/GIN/small_compression/mean/12/high",
        "file_path": "T/BCE/2/GIN/small_compression/mean/12/high",
        "add_graph": false,
        "track_embeddings": false,
        "track_singular_values": true,
        "get_elements": false,
        "save": true,
        "seed": 0
    },
    "sparcity": 0.9232159992225947,
    "empty graph stats": 0.22700317203998566,
    "singular value ratio": [
        0.0,
        0.0
    ],
    "summary format:": "Key: (Num of active features, Num of accurate feature, Geometry, Collapsed). Loss, s.d. Loss, Count",
    "collapsed percentage": 0.0,
    "summary": {
        "(5, 5, 5, 0)": [
            0.16923277266820272,
            0.0,
            1
        ],
        "(1, 1, 1, 0)": [
            0.2616710925102234,
            0.0,
            1
        ]
    },
    "results": [
        {
            "Num of features": 12,
            "Num of active features": 5,
            "Num of accurate feature": 5,
            "Geometry": 5,
            "Collapsed": 0,
            "Loss": 0.16923277266820272,
            "Rank": 6,
            "Singular values": [
                10.084479331970215,
                7.677341938018799,
                7.430145263671875,
                4.643641471862793,
                4.083487033843994,
                1.743291974067688
            ]
        },
        {
            "Num of features": 12,
            "Num of active features": 1,
            "Num of accurate feature": 1,
            "Geometry": 1,
            "Collapsed": 0,
            "Loss": 0.2616710925102234,
            "Rank": 3,
            "Singular values": [
                8.454692840576172,
                3.959740400314331,
                0.3321300745010376,
                2.0505248699009826e-07,
                1.0374360925879955e-07,
                2.168134471958183e-08
            ]
        }
    ],
    "average embeddings summary": {
        "(5, 5, 5, 0)": {
            "(0, 1, 0, 0, 0, 0, 0, 0, 0, 0, 0, 0)": [
                4.712162971496582,
                1.4475244283676147,
                -1.0655946731567383,
                0.7112285494804382,
                0.6122178435325623,
                -0.3700461685657501
            ],
            "(0, 0, 0, 0, 1, 0, 0, 0, 0, 0, 0, 0)": [
                2.0211596488952637,
                -1.0458524227142334,
                1.9564745426177979,
                -0.008285416290163994,
                0.6517428159713745,
                1.0213192701339722
            ],
            "(0, 0, 0, 1, 0, 0, 0, 0, 0, 0, 0, 0)": [
                2.9252512454986572,
                -2.6229782104492188,
                1.4636098146438599,
                2.4440486431121826,
                4.752031326293945,
                -3.2791435718536377
            ],
            "(0, 0, 0, 0, 0, 1, 0, 0, 0, 0, 0, 0)": [
                1.9065240621566772,
                -0.7160540819168091,
                1.6784710884094238,
                0.03115202859044075,
                0.7040082812309265,
                1.2334572076797485
            ],
            "(0, 0, 0, 0, 0, 0, 0, 0, 0, 0, 1, 0)": [
                -2.339547634124756,
                2.4497907161712646,
                1.862243413925171,
                -0.8985013365745544,
                5.852259635925293,
                1.3025294542312622
            ],
            "(0, 0, 1, 0, 0, 0, 0, 0, 0, 0, 0, 0)": [
                1.8407071828842163,
                -0.7070381045341492,
                1.7240053415298462,
                0.0028794272802770138,
                0.6914739608764648,
                1.2896168231964111
            ],
            "(0, 0, 0, 0, 0, 0, 1, 0, 0, 0, 0, 0)": [
                0.9622718095779419,
                -0.5962746143341064,
                1.5822275876998901,
                0.4526907801628113,
                2.1659669876098633,
                1.0274379253387451
            ],
            "(0, 0, 0, 0, 0, 0, 0, 0, 0, 1, 0, 0)": [
                1.8275457620620728,
                -0.7835060358047485,
                1.72134530544281,
                0.07274684309959412,
                0.7484351396560669,
                1.254953145980835
            ],
            "(1, 0, 0, 0, 0, 0, 0, 0, 0, 0, 0, 0)": [
                1.761898159980774,
                2.440049409866333,
                2.1906485557556152,
                -2.938678741455078,
                -0.12957315146923065,
                1.9315807819366455
            ],
            "(0, 0, 0, 0, 0, 0, 0, 1, 0, 0, 0, 0)": [
                1.8376519680023193,
                -0.7013629078865051,
                1.6842138767242432,
                0.04176614060997963,
                0.7933959364891052,
                1.2275091409683228
            ],
            "(0, 0, 0, 0, 0, 0, 0, 0, 0, 0, 0, 1)": [
                2.048077344894409,
                -1.0103697776794434,
                1.9411262273788452,
                0.012384791858494282,
                0.7657468318939209,
                0.900006890296936
            ],
            "(0, 0, 0, 0, 0, 0, 0, 0, 1, 0, 0, 0)": [
                0.9931144714355469,
                1.9349610805511475,
                2.96268630027771,
                2.9611799716949463,
                -1.5833463668823242,
                2.1415345668792725
            ]
        },
        "(1, 1, 1, 0)": {
            "(0, 1, 0, 0, 0, 0, 0, 0, 0, 0, 0, 0)": [
                -1.9020057916641235,
                0.5216583609580994,
                0.6873995065689087,
                2.0051753520965576,
                0.13527454435825348,
                0.04546785354614258
            ],
            "(0, 0, 0, 0, 0, 0, 0, 0, 0, 0, 1, 0)": [
                -0.27299824357032776,
                1.0867021083831787,
                1.0569578409194946,
                1.5366007089614868,
                0.11575599014759064,
                0.24522225558757782
            ],
            "(0, 0, 0, 0, 0, 0, 1, 0, 0, 0, 0, 0)": [
                -1.8395416736602783,
                0.5291435122489929,
                0.6997563242912292,
                1.9676600694656372,
                0.1258804351091385,
                0.04314350709319115
            ],
            "(0, 0, 1, 0, 0, 0, 0, 0, 0, 0, 0, 0)": [
                -1.5923408269882202,
                0.46127766370773315,
                0.7361878752708435,
                1.6848156452178955,
                0.029269615188241005,
                -0.034688375890254974
            ],
            "(0, 0, 0, 0, 0, 0, 0, 0, 1, 0, 0, 0)": [
                1.8880882263183594,
                2.2169439792633057,
                1.5959126949310303,
                1.439652919769287,
                0.3219187259674072,
                0.7781978249549866
            ],
            "(0, 0, 0, 1, 0, 0, 0, 0, 0, 0, 0, 0)": [
                -0.5940683484077454,
                0.9203119874000549,
                0.9770815968513489,
                1.553110957145691,
                0.08605847507715225,
                0.16711477935314178
            ],
            "(0, 0, 0, 0, 0, 0, 0, 0, 0, 1, 0, 0)": [
                -1.6335188150405884,
                0.4231891632080078,
                0.7238012552261353,
                1.663846731185913,
                0.01525010634213686,
                -0.05649707466363907
            ],
            "(0, 0, 0, 0, 0, 0, 0, 0, 0, 0, 0, 1)": [
                -1.6245481967926025,
                0.429361492395401,
                0.7262277603149414,
                1.6654855012893677,
                0.017008621245622635,
                -0.05324223265051842
            ],
            "(0, 0, 0, 0, 1, 0, 0, 0, 0, 0, 0, 0)": [
                -1.8883800506591797,
                0.5201570987701416,
                0.6896942853927612,
                1.9926718473434448,
                0.13131465017795563,
                0.0427544079720974
            ],
            "(1, 0, 0, 0, 0, 0, 0, 0, 0, 0, 0, 0)": [
                -1.5549603700637817,
                0.3970915973186493,
                0.734799325466156,
                1.567716360092163,
                -0.01821395568549633,
                -0.08442085236310959
            ],
            "(0, 0, 0, 0, 0, 1, 0, 0, 0, 0, 0, 0)": [
                -1.822029709815979,
                0.47992056608200073,
                0.6966559290885925,
                1.8864006996154785,
                0.0919586718082428,
                0.006360769737511873
            ],
            "(0, 0, 0, 0, 0, 0, 0, 1, 0, 0, 0, 0)": [
                -1.8014883995056152,
                0.5176290273666382,
                0.7052279114723206,
                1.9226489067077637,
                0.11035777628421783,
                0.030410857871174812
            ]
        }
    },
    "model summary": {
        "(5, 5, 5, 0)": {
            "convs.0.eps": [
                -0.1588897407054901
            ],
            "convs.0.nn.0.weight": [
                [
                    -0.23168052732944489,
                    -0.4333803951740265,
                    -0.3201543986797333,
                    0.950043797492981,
                    -0.12208464741706848,
                    -0.029947873204946518,
                    0.7516100406646729,
                    0.04383891448378563,
                    -0.25426751375198364,
                    -0.2944861650466919,
                    -1.5017554759979248,
                    -0.053791213780641556
                ],
                [
                    0.8914283514022827,
                    0.9249627590179443,
                    -0.5397778749465942,
                    -0.43221622705459595,
                    -0.3415108621120453,
                    -0.4579525887966156,
                    -0.2400994747877121,
                    -0.46216872334480286,
                    0.3421860337257385,
                    -0.32897958159446716,
                    -0.25537386536598206,
                    -0.2687469720840454
                ],
                [
                    -0.09224136918783188,
                    0.6699767708778381,
                    -0.2347719520330429,
                    -0.16666598618030548,
                    -0.11986574530601501,
                    -0.31463858485221863,
                    1.0672104358673096,
                    -0.26247701048851013,
                    -0.14094442129135132,
                    -0.020328495651483536,
                    0.6972701549530029,
                    -0.19492033123970032
                ],
                [
                    -0.24712446331977844,
                    -0.004361518658697605,
                    -0.20378193259239197,
                    0.05233079567551613,
                    -0.16114698350429535,
                    -0.02550855465233326,
                    -0.0765022337436676,
                    -0.01067511085420847,
                    -0.2348031997680664,
                    -0.019177734851837158,
                    -0.31828099489212036,
                    -0.04289153218269348
                ],
                [
                    -0.7427465319633484,
                    1.2430814504623413,
                    -0.30309540033340454,
                    -1.1275378465652466,
                    -0.6486058831214905,
                    0.3363665044307709,
                    -0.3001203238964081,
                    -0.07689320296049118,
                    -0.9680044651031494,
                    -0.46342912316322327,
                    -0.12323138862848282,
                    -0.4817308485507965
                ],
                [
                    -0.3836754858493805,
                    -0.5305231809616089,
                    -0.24113526940345764,
                    -0.20346280932426453,
                    -0.5152089595794678,
                    -0.3428783416748047,
                    -0.013421486131846905,
                    -0.21070286631584167,
                    1.1266251802444458,
                    -0.10615985095500946,
                    -0.2806830406188965,
                    -0.12401580810546875
                ],
                [
                    -0.3437782824039459,
                    0.5211021900177002,
                    -0.32212337851524353,
                    0.8794626593589783,
                    -0.4567417502403259,
                    -0.09279391914606094,
                    -0.1377924084663391,
                    -0.6469097137451172,
                    -0.3888300359249115,
                    -0.21506883203983307,
                    -0.032155461609363556,
                    0.09277315437793732
                ],
                [
                    -0.169211745262146,
                    -0.43377941846847534,
                    -0.2322000414133072,
                    0.7848715782165527,
                    -0.21242375671863556,
                    -0.032045669853687286,
                    -0.5321179032325745,
                    -0.03648604825139046,
                    -0.22287364304065704,
                    -0.2889743149280548,
                    0.9495630264282227,
                    -0.1103307455778122
                ],
                [
                    -0.26318034529685974,
                    -0.1909945011138916,
                    -0.4160691201686859,
                    -0.684039831161499,
                    0.7449730634689331,
                    -0.0381583645939827,
                    -0.42270809412002563,
                    -0.2629357874393463,
                    -0.26365023851394653,
                    -0.22968649864196777,
                    -0.3006180226802826,
                    0.9516749978065491
                ],
                [
                    1.2287119626998901,
                    -0.6286371946334839,
                    -0.43139493465423584,
                    -0.14113372564315796,
                    -0.15863864123821259,
                    -0.19839414954185486,
                    -0.5137160420417786,
                    -0.2942442297935486,
                    -0.3219032883644104,
                    -0.4572623372077942,
                    -0.6008468270301819,
                    -0.33404088020324707
                ],
                [
                    -0.36918729543685913,
                    0.3145175576210022,
                    -0.6367704272270203,
                    -0.9368545413017273,
                    -0.6637999415397644,
                    -0.5282157063484192,
                    -0.5565717816352844,
                    -0.5279773473739624,
                    -0.5536307096481323,
                    -0.5185496807098389,
                    1.0569548606872559,
                    -0.3291921615600586
                ],
                [
                    -0.33208417892456055,
                    0.7621450424194336,
                    -0.08796252310276031,
                    0.8071086406707764,
                    0.2810531258583069,
                    -0.04919357970356941,
                    -0.263060063123703,
                    0.10601542145013809,
                    0.31107527017593384,
                    0.30931711196899414,
                    -0.18916022777557373,
                    -0.016635257750749588
                ]
            ],
            "convs.0.nn.0.bias": [
                -0.676947295665741,
                -1.123482346534729,
                -0.46322640776634216,
                -0.27450546622276306,
                -1.3854880332946777,
                -1.2253589630126953,
                0.2585591673851013,
                -1.2830854654312134,
                -0.3162432610988617,
                -1.3376041650772095,
                -0.8294137716293335,
                -1.2656728029251099
            ],
            "convs.0.nn.2.weight": [
                [
                    -0.37102922797203064,
                    -0.2540417015552521,
                    -0.08084237575531006,
                    0.17830845713615417,
                    -0.18941757082939148,
                    -0.20276670157909393,
                    -0.0968739315867424,
                    -0.3932124674320221,
                    -0.3630121648311615,
                    -0.03035471960902214,
                    -0.33035513758659363,
                    -0.025688765570521355
                ],
                [
                    0.9290339350700378,
                    -0.7016196846961975,
                    -1.3398264646530151,
                    0.3119381368160248,
                    -0.466801255941391,
                    -0.18235886096954346,
                    0.28118860721588135,
                    0.9394952654838562,
                    0.495182067155838,
                    -0.1700499802827835,
                    0.08314400911331177,
                    0.760799765586853
                ],
                [
                    0.813256025314331,
                    -0.10990498214960098,
                    0.4915495812892914,
                    0.12362997233867645,
                    0.036578476428985596,
                    -0.26298534870147705,
                    0.02854219265282154,
                    1.0948190689086914,
                    -0.3046651780605316,
                    0.2568579912185669,
                    1.1256197690963745,
                    0.5105776190757751
                ],
                [
                    -0.9173964858055115,
                    -0.28194767236709595,
                    -0.32197004556655884,
                    -0.03711969032883644,
                    -0.3723970651626587,
                    0.13467901945114136,
                    -0.8033362030982971,
                    -0.3771091401576996,
                    -1.1751089096069336,
                    -0.254904180765152,
                    -1.0315186977386475,
                    -0.24005813896656036
                ],
                [
                    -0.4718908369541168,
                    0.17043980956077576,
                    -0.27896684408187866,
                    0.12112053483724594,
                    0.2055264115333557,
                    -0.7172309160232544,
                    0.7401928305625916,
                    -0.7419071197509766,
                    -0.7914440035820007,
                    0.022388514131307602,
                    -0.17610687017440796,
                    -0.6793286204338074
                ],
                [
                    0.031013842672109604,
                    0.29631778597831726,
                    0.2510252296924591,
                    0.3903546929359436,
                    -0.5926975011825562,
                    -0.49981099367141724,
                    -0.4398854672908783,
                    0.3096250593662262,
                    -0.9976924657821655,
                    0.3649628162384033,
                    0.8385210037231445,
                    -0.0048803724348545074
                ],
                [
                    -0.6447679400444031,
                    0.7788680791854858,
                    -0.7015358805656433,
                    -0.16784697771072388,
                    -0.16488778591156006,
                    1.2735679149627686,
                    -0.4557933509349823,
                    -0.2025204747915268,
                    -0.6590663194656372,
                    1.3110753297805786,
                    -0.3681918978691101,
                    -0.014555774629116058
                ],
                [
                    0.07091928273439407,
                    -0.31520572304725647,
                    -0.12309860438108444,
                    -0.15282613039016724,
                    -0.19154711067676544,
                    -0.17993628978729248,
                    -0.031045518815517426,
                    -0.15585803985595703,
                    -0.3770022988319397,
                    -0.2998376786708832,
                    -0.2430640310049057,
                    -0.004073355812579393
                ],
                [
                    -1.2689487934112549,
                    0.9923763275146484,
                    0.0778183564543724,
                    0.09943906962871552,
                    1.2880332469940186,
                    1.0881354808807373,
                    0.057171858847141266,
                    -0.15977351367473602,
                    -0.9773412942886353,
                    -0.20536458492279053,
                    0.39105668663978577,
                    1.1751091480255127
                ],
                [
                    -0.8311618566513062,
                    0.30507516860961914,
                    -0.10484680533409119,
                    0.3469206690788269,
                    -1.4721465110778809,
                    -1.328244924545288,
                    -1.1382330656051636,
                    1.5641424655914307,
                    -0.8147246241569519,
                    1.3577913045883179,
                    1.1748849153518677,
                    -0.4339599013328552
                ],
                [
                    -0.6444835662841797,
                    0.4992831349372864,
                    -0.08925444632768631,
                    -0.10421151667833328,
                    -1.1744670867919922,
                    1.1002171039581299,
                    -0.26458579301834106,
                    0.8753865361213684,
                    -0.7477123141288757,
                    1.0623736381530762,
                    0.8320856690406799,
                    0.4861734211444855
                ],
                [
                    -0.2435220181941986,
                    -0.10892387479543686,
                    -0.19854030013084412,
                    0.27336540818214417,
                    -0.12403792887926102,
                    -0.1317959427833557,
                    0.15124063193798065,
                    -0.13353891670703888,
                    -0.14217889308929443,
                    -0.025250842794775963,
                    -0.027747316285967827,
                    -0.2248717099428177
                ]
            ],
            "convs.0.nn.2.bias": [
                -0.02198408544063568,
                -1.3923327922821045,
                -0.0530492439866066,
                0.5613888502120972,
                1.2323466539382935,
                0.16374732553958893,
                -0.22752723097801208,
                -0.12573978304862976,
                -0.8978013396263123,
                -0.5882121324539185,
                -0.6214845180511475,
                -0.2816547751426697
            ],
            "convs.1.eps": [
                1.8172993659973145
            ],
            "convs.1.nn.0.weight": [
                [
                    0.26537927985191345,
                    1.641855001449585,
                    0.22642740607261658,
                    0.6552984118461609,
                    -0.1878003031015396,
                    -0.49896591901779175,
                    -0.6814873814582825,
                    0.12206266075372696,
                    1.2431479692459106,
                    0.07336997240781784,
                    -0.2662751376628876,
                    0.06556476652622223
                ],
                [
                    -0.1850273311138153,
                    -0.02825123816728592,
                    -0.44807395339012146,
                    -0.26058074831962585,
                    -0.19494864344596863,
                    0.1730276495218277,
                    -0.32031485438346863,
                    0.20090748369693756,
                    -0.13540393114089966,
                    -0.26196572184562683,
                    -0.12223657220602036,
                    0.2504487633705139
                ],
                [
                    -0.05205176770687103,
                    -1.0028358697891235,
                    0.23719646036624908,
                    -0.44857025146484375,
                    -0.061382800340652466,
                    0.18205751478672028,
                    0.5096496939659119,
                    -0.10049857199192047,
                    -0.2309374064207077,
                    1.6166322231292725,
                    0.7588790059089661,
                    -0.2770387530326843
                ],
                [
                    -0.31846994161605835,
                    1.3992297649383545,
                    -0.07165859639644623,
                    0.14766795933246613,
                    -0.5671921372413635,
                    -0.48006775975227356,
                    -0.22128647565841675,
                    -0.3413153886795044,
                    -0.28179916739463806,
                    -0.0014132085489109159,
                    -0.0378616601228714,
                    0.09322195500135422
                ],
                [
                    0.1894199252128601,
                    0.5247358679771423,
                    -0.9355911612510681,
                    0.12430236488580704,
                    -1.5757554769515991,
                    -0.978706955909729,
                    0.8863210678100586,
                    -0.13318748772144318,
                    0.5878071784973145,
                    -0.9062411785125732,
                    0.9338237047195435,
                    -0.20255762338638306
                ],
                [
                    -0.03706005960702896,
                    1.7407704591751099,
                    0.7083871364593506,
                    1.3794552087783813,
                    -0.9719265103340149,
                    0.279527872800827,
                    -0.7868860363960266,
                    -0.007211022078990936,
                    -0.4958934187889099,
                    0.7343354225158691,
                    0.3232487142086029,
                    0.12491686642169952
                ]
            ],
            "convs.1.nn.0.bias": [
                -0.4778357148170471,
                -0.07611200958490372,
                0.08585254848003387,
                2.417330265045166,
                -0.26992425322532654,
                -0.39759162068367004
            ],
            "convs.1.nn.2.weight": [
                [
                    0.9071207046508789,
                    -0.05550893768668175,
                    -0.023068435490131378,
                    0.8507052659988403,
                    -0.5064059495925903,
                    -0.9989529252052307
                ],
                [
                    0.6747930645942688,
                    0.12042123079299927,
                    0.7205067276954651,
                    -1.785696029663086,
                    1.047433614730835,
                    -0.18942494690418243
                ],
                [
                    -0.8694459199905396,
                    -0.3078644871711731,
                    0.12185593694448471,
                    1.4076882600784302,
                    0.697475254535675,
                    -0.118654265999794
                ],
                [
                    0.21606366336345673,
                    -0.18735669553279877,
                    -0.6862173080444336,
                    -0.15627937018871307,
                    1.970646619796753,
                    0.6872954964637756
                ],
                [
                    -0.0415276475250721,
                    0.03377646580338478,
                    -0.20221038162708282,
                    -0.3328768014907837,
                    -1.1951186656951904,
                    1.5166380405426025
                ],
                [
                    -0.5162904858589172,
                    -0.06903276592493057,
                    0.15675337612628937,
                    -1.305785894393921,
                    0.4375414252281189,
                    -0.19057051837444305
                ]
            ],
            "convs.1.nn.2.bias": [
                1.7936935424804688,
                -0.9878391027450562,
                1.6931724548339844,
                0.22524511814117432,
                0.6906366348266602,
                1.3530998229980469
            ],
            "lin_out.weight": [
                [
                    -0.5785260796546936,
                    0.7462716698646545,
                    -0.5203444957733154,
                    -1.9839662313461304,
                    -1.071718454360962,
                    -0.41054853796958923
                ],
                [
                    0.6653594374656677,
                    1.1459695100784302,
                    -2.3640801906585693,
                    0.21572385728359222,
                    -0.6408712863922119,
                    -1.1026986837387085
                ],
                [
                    -0.3700268864631653,
                    -0.41299644112586975,
                    -0.473078191280365,
                    -0.10657791048288345,
                    -0.3790709674358368,
                    0.00808899849653244
                ],
                [
                    -0.6949208378791809,
                    -1.147135853767395,
                    -0.7612698078155518,
                    0.9167618155479431,
                    0.3938157856464386,
                    -1.8425239324569702
                ],
                [
                    -0.4880177974700928,
                    -0.5059623718261719,
                    0.0589841827750206,
                    -0.4523526132106781,
                    -0.6121094226837158,
                    -0.6095940470695496
                ],
                [
                    -0.21521973609924316,
                    -0.4046873152256012,
                    -0.49252280592918396,
                    -0.1419493407011032,
                    -0.21291838586330414,
                    0.06947659701108932
                ],
                [
                    -0.4854735732078552,
                    -0.3348655104637146,
                    -0.5819936990737915,
                    0.24577635526657104,
                    0.017199527472257614,
                    0.12313629686832428
                ],
                [
                    -0.4362232983112335,
                    -0.4189677834510803,
                    -0.43971776962280273,
                    -0.10560798645019531,
                    -0.3727954626083374,
                    -0.06375516951084137
                ],
                [
                    -1.4948220252990723,
                    0.9110457301139832,
                    -0.09909587353467941,
                    2.4843595027923584,
                    -1.628615379333496,
                    -0.055001892149448395
                ],
                [
                    -0.3845013678073883,
                    -0.34481969475746155,
                    -0.33282455801963806,
                    -0.1252870410680771,
                    -0.3704164922237396,
                    -0.21305182576179504
                ],
                [
                    -1.9349616765975952,
                    0.6949247121810913,
                    -1.011281967163086,
                    -0.18196552991867065,
                    0.7408060431480408,
                    -0.4016360342502594
                ],
                [
                    -0.29128026962280273,
                    -0.5365890860557556,
                    0.07755517959594727,
                    -0.31639185547828674,
                    -0.5264289975166321,
                    -0.4122067987918854
                ]
            ],
            "lin_out.bias": [
                -0.7827239036560059,
                -1.3581041097640991,
                0.02602279558777809,
                -1.532326579093933,
                -0.22420711815357208,
                -0.4833262860774994,
                -0.4374799132347107,
                -0.08475770801305771,
                -1.1606931686401367,
                -0.23084484040737152,
                -1.4832026958465576,
                -0.7964322566986084
            ]
        },
        "(1, 1, 1, 0)": {
            "convs.0.eps": [
                -0.19494125247001648
            ],
            "convs.0.nn.0.weight": [
                [
                    -0.188669815659523,
                    -0.14708839356899261,
                    -0.46498796343803406,
                    -0.27837640047073364,
                    0.021955031901597977,
                    0.5205908417701721,
                    -0.0023076473735272884,
                    0.15233054757118225,
                    -0.16671882569789886,
                    0.16960357129573822,
                    -0.18944965302944183,
                    -0.06382664293050766
                ],
                [
                    -0.8603392839431763,
                    -0.20016619563102722,
                    -0.8575883507728577,
                    -0.1512071192264557,
                    -0.8908422589302063,
                    -0.9374849796295166,
                    -0.8244704604148865,
                    -0.8074763417243958,
                    0.016235116869211197,
                    -0.9389670491218567,
                    0.006729372311383486,
                    -0.8681101202964783
                ],
                [
                    0.014618090353906155,
                    -0.06967118382453918,
                    0.017672354355454445,
                    -0.24438965320587158,
                    -0.034098755568265915,
                    -0.23144496977329254,
                    -0.06671823561191559,
                    -0.15069633722305298,
                    0.04223093017935753,
                    0.061176348477602005,
                    0.11412490159273148,
                    -0.08980566263198853
                ],
                [
                    -0.1690041422843933,
                    -0.020419582724571228,
                    -0.5153999328613281,
                    0.6415744423866272,
                    -0.10543233156204224,
                    -0.02782587707042694,
                    -0.1827390193939209,
                    -0.11697860062122345,
                    -0.7279380559921265,
                    -0.12204289436340332,
                    0.7087366580963135,
                    -0.16099005937576294
                ],
                [
                    -0.21024848520755768,
                    0.10027588158845901,
                    -0.4957655370235443,
                    0.597829282283783,
                    -0.14633262157440186,
                    -0.2264486700296402,
                    -0.34090766310691833,
                    -0.10767639428377151,
                    0.5098763704299927,
                    -0.10391601175069809,
                    -0.40283894538879395,
                    -0.060773011296987534
                ],
                [
                    -0.1127076968550682,
                    0.018966583535075188,
                    -0.4014545679092407,
                    -0.6502701640129089,
                    -0.10079270601272583,
                    -0.16636218130588531,
                    -0.14268848299980164,
                    -0.16723579168319702,
                    0.673344075679779,
                    -0.2628674805164337,
                    0.8846133351325989,
                    -0.1292954832315445
                ],
                [
                    -0.24138715863227844,
                    0.20522893965244293,
                    -0.2827445864677429,
                    -0.22856555879116058,
                    0.17333245277404785,
                    -0.24241028726100922,
                    0.036743130534887314,
                    -0.1556708812713623,
                    0.03762323781847954,
                    -0.03378066048026085,
                    0.016445063054561615,
                    -0.2291109263896942
                ],
                [
                    -0.21437178552150726,
                    -0.07608982920646667,
                    0.10195760428905487,
                    0.43514809012413025,
                    0.2229614555835724,
                    -0.1328004151582718,
                    -0.036799825727939606,
                    -0.21869352459907532,
                    0.43071624636650085,
                    -0.05415589362382889,
                    -0.5039224624633789,
                    -0.2836202085018158
                ],
                [
                    -0.39482924342155457,
                    -0.17590317130088806,
                    -0.27596962451934814,
                    -0.4276407063007355,
                    -0.23560263216495514,
                    -0.2088833749294281,
                    -0.39451590180397034,
                    -0.376261442899704,
                    0.7366887331008911,
                    -0.4350894093513489,
                    -0.5723125338554382,
                    -0.5056313872337341
                ],
                [
                    -0.30248215794563293,
                    -0.08880758285522461,
                    0.8066392540931702,
                    0.2679608166217804,
                    -0.10429960489273071,
                    -0.0008158592972904444,
                    -0.20370063185691833,
                    -0.07513832300901413,
                    0.1914040744304657,
                    -0.2652554214000702,
                    0.2861568331718445,
                    -0.2509078085422516
                ],
                [
                    0.6663742661476135,
                    -0.033102743327617645,
                    -0.46162351965904236,
                    -0.3319767117500305,
                    -0.6774566769599915,
                    -0.6756866574287415,
                    -0.4998749792575836,
                    -0.5143471360206604,
                    -0.43424054980278015,
                    0.6666496396064758,
                    -0.24819283187389374,
                    0.6158831715583801
                ],
                [
                    -0.4315294623374939,
                    -0.11105722934007645,
                    -0.4619758129119873,
                    -0.450813889503479,
                    -0.3451918959617615,
                    -0.16343262791633606,
                    -0.3574312627315521,
                    -0.31972360610961914,
                    0.8759633898735046,
                    -0.399729460477829,
                    -0.6311274766921997,
                    -0.22704243659973145
                ]
            ],
            "convs.0.nn.0.bias": [
                0.5075690746307373,
                0.6910738348960876,
                -0.4713425040245056,
                -0.4188268184661865,
                -0.48699238896369934,
                -0.755537211894989,
                0.6984803080558777,
                -0.37045952677726746,
                -0.7247411012649536,
                -0.5596910715103149,
                -0.6055641770362854,
                -0.9495583176612854
            ],
            "convs.0.nn.2.weight": [
                [
                    -0.6728746891021729,
                    -1.026483416557312,
                    0.03401660546660423,
                    1.0333149433135986,
                    0.8176729083061218,
                    1.1748048067092896,
                    -0.5146613717079163,
                    0.4908825159072876,
                    1.3114391565322876,
                    0.2678932547569275,
                    -0.3993317484855652,
                    1.5996208190917969
                ],
                [
                    -0.25918111205101013,
                    -0.029341626912355423,
                    0.044362157583236694,
                    -0.18764722347259521,
                    0.20066438615322113,
                    0.1813049167394638,
                    0.05589263141155243,
                    0.09928261488676071,
                    0.5081185698509216,
                    -0.4009608030319214,
                    -0.5459766983985901,
                    0.4112670123577118
                ],
                [
                    0.0069877272471785545,
                    0.003974553197622299,
                    -0.12267769128084183,
                    -0.2823677659034729,
                    0.10412482172250748,
                    -0.21604441106319427,
                    -0.10043981671333313,
                    -0.2933473587036133,
                    -0.16285844147205353,
                    0.06816992908716202,
                    -0.268966406583786,
                    -0.1646140068769455
                ],
                [
                    -0.0023755114525556564,
                    -0.36280557513237,
                    0.032077498733997345,
                    -0.29768824577331543,
                    0.18787330389022827,
                    0.34332430362701416,
                    -0.06840112060308456,
                    0.1257714033126831,
                    0.5684188008308411,
                    0.024072520434856415,
                    -0.4856824576854706,
                    0.750788152217865
                ],
                [
                    -0.34323516488075256,
                    -0.14989741146564484,
                    -0.34978559613227844,
                    -0.2226962298154831,
                    0.02479015663266182,
                    -0.17801520228385925,
                    -1.11579167842865,
                    -0.0664033591747284,
                    -0.2088463455438614,
                    -0.1674898862838745,
                    1.0505683422088623,
                    0.2753496766090393
                ],
                [
                    -0.36649805307388306,
                    -0.021052589640021324,
                    0.1436137557029724,
                    -0.26052185893058777,
                    -0.3574083149433136,
                    0.02879076637327671,
                    -0.0641905814409256,
                    -0.23958063125610352,
                    0.014748102985322475,
                    -0.241616889834404,
                    0.06702042371034622,
                    -0.15565328299999237
                ],
                [
                    -0.25442588329315186,
                    -0.02661306783556938,
                    -0.0815248191356659,
                    0.018663862720131874,
                    -0.1865282654762268,
                    -0.0036125716287642717,
                    -0.3126489818096161,
                    -0.0008164652390405536,
                    0.06898410618305206,
                    -0.10160849243402481,
                    -0.30209600925445557,
                    -0.08706382662057877
                ],
                [
                    -0.14828021824359894,
                    -0.5658618211746216,
                    -0.066337950527668,
                    -0.14788126945495605,
                    0.0961596816778183,
                    0.20390959084033966,
                    0.09680883586406708,
                    0.039794921875,
                    0.8156415224075317,
                    -0.22828122973442078,
                    -0.5064788460731506,
                    0.5956501960754395
                ],
                [
                    0.19433490931987762,
                    0.2078261822462082,
                    -0.13606956601142883,
                    -0.6252156496047974,
                    0.22722774744033813,
                    0.08970163017511368,
                    0.3558186888694763,
                    0.2361941933631897,
                    0.03513450175523758,
                    -0.42082226276397705,
                    0.5176743865013123,
                    -0.725069522857666
                ],
                [
                    0.23049049079418182,
                    0.2007632702589035,
                    -0.06182198226451874,
                    0.0004932587617076933,
                    -0.5875338912010193,
                    -0.607735276222229,
                    0.27646657824516296,
                    0.015697382390499115,
                    0.021383078768849373,
                    -0.32139861583709717,
                    -0.45113250613212585,
                    0.11256605386734009
                ],
                [
                    -0.09809933602809906,
                    -0.14008332788944244,
                    0.2941897213459015,
                    -0.03554461896419525,
                    -0.4473755359649658,
                    -0.15583330392837524,
                    0.13608494400978088,
                    0.177857905626297,
                    0.33754420280456543,
                    -0.3551136255264282,
                    -0.6034981608390808,
                    0.5713262557983398
                ],
                [
                    0.038634397089481354,
                    -0.05478358268737793,
                    0.014105485752224922,
                    -0.02233961969614029,
                    -0.30667611956596375,
                    -0.1275123655796051,
                    -0.057729046791791916,
                    -0.19279363751411438,
                    0.15274322032928467,
                    -0.2241453230381012,
                    -0.35889673233032227,
                    -0.27713555097579956
                ]
            ],
            "convs.0.nn.2.bias": [
                -1.0027683973312378,
                0.5963953137397766,
                -0.181844562292099,
                -0.14004334807395935,
                -0.25163373351097107,
                -0.41065624356269836,
                -0.23751099407672882,
                0.30825790762901306,
                0.05987214297056198,
                0.46038541197776794,
                0.5184502601623535,
                -0.1316259503364563
            ],
            "convs.1.eps": [
                0.17898616194725037
            ],
            "convs.1.nn.0.weight": [
                [
                    -0.019901758059859276,
                    0.043495964258909225,
                    0.07232873141765594,
                    -0.35327404737472534,
                    -0.05049164965748787,
                    0.05686212703585625,
                    0.036126866936683655,
                    -0.4540325999259949,
                    -0.45953914523124695,
                    -0.08855981379747391,
                    -0.12087269872426987,
                    -0.1875428408384323
                ],
                [
                    -0.28617456555366516,
                    -0.07507294416427612,
                    0.11051667481660843,
                    0.24856963753700256,
                    -0.260682076215744,
                    0.13782347738742828,
                    -0.2739163041114807,
                    -0.276060551404953,
                    -0.18078123033046722,
                    -0.038129162043333054,
                    0.08062519878149033,
                    -0.21954065561294556
                ],
                [
                    1.5046496391296387,
                    0.3838929533958435,
                    -0.03413151949644089,
                    0.47073253989219666,
                    -1.533332109451294,
                    -0.23940622806549072,
                    -0.025948088616132736,
                    0.22372108697891235,
                    -0.4816758334636688,
                    -0.42321863770484924,
                    0.19754940271377563,
                    0.05310630053281784
                ],
                [
                    0.05992848798632622,
                    -0.2925157845020294,
                    0.10194283723831177,
                    -0.3000982701778412,
                    -0.004983080551028252,
                    -0.015991196036338806,
                    0.12950626015663147,
                    -0.0027221734635531902,
                    0.059547215700149536,
                    -0.006462267134338617,
                    -0.14822354912757874,
                    0.12597115337848663
                ],
                [
                    -1.0700701475143433,
                    0.4910515546798706,
                    0.22994807362556458,
                    0.21150736510753632,
                    -0.8885006308555603,
                    -0.0035034469328820705,
                    0.09184085577726364,
                    0.17791630327701569,
                    -0.05920621380209923,
                    0.25668853521347046,
                    0.4140569269657135,
                    0.05737108737230301
                ],
                [
                    -0.10287811607122421,
                    -0.2465214878320694,
                    0.08044429123401642,
                    -0.3904368281364441,
                    0.027921995148062706,
                    -0.2191765308380127,
                    -0.08468838781118393,
                    -0.44231465458869934,
                    0.0347677543759346,
                    -0.48845911026000977,
                    -0.4083329141139984,
                    -0.28250613808631897
                ]
            ],
            "convs.1.nn.0.bias": [
                -0.048110101372003555,
                -0.22219006717205048,
                -0.009175092913210392,
                -0.3400470018386841,
                0.19500432908535004,
                -0.5055761933326721
            ],
            "convs.1.nn.2.weight": [
                [
                    -0.11830572783946991,
                    0.3751315474510193,
                    0.8880630731582642,
                    -0.1078181117773056,
                    -0.6426355242729187,
                    -0.1607954502105713
                ],
                [
                    0.4506995975971222,
                    -0.08683266490697861,
                    0.47805923223495483,
                    0.23958666622638702,
                    0.16882936656475067,
                    -0.06695225089788437
                ],
                [
                    0.03536349907517433,
                    -0.004330778028815985,
                    0.22321480512619019,
                    -0.09182710200548172,
                    -0.0956810861825943,
                    0.2654670774936676
                ],
                [
                    -0.25331437587738037,
                    0.2767607569694519,
                    -0.02108609303832054,
                    -0.23590901494026184,
                    0.724823534488678,
                    -0.43318960070610046
                ],
                [
                    0.37410104274749756,
                    0.40486496686935425,
                    0.09301339834928513,
                    0.2293936163187027,
                    0.24652205407619476,
                    0.12697768211364746
                ],
                [
                    -0.06250345706939697,
                    -0.2297290712594986,
                    0.22859561443328857,
                    0.4197549521923065,
                    0.19698642194271088,
                    0.5338512659072876
                ]
            ],
            "convs.1.nn.2.bias": [
                -0.4092639982700348,
                -0.024184055626392365,
                0.8899945020675659,
                0.10969238728284836,
                -0.531047523021698,
                -0.5202926397323608
            ],
            "lin_out.weight": [
                [
                    0.11105170100927353,
                    -0.8439956307411194,
                    0.002745316829532385,
                    -0.6419960856437683,
                    -0.6676900386810303,
                    -0.226644366979599
                ],
                [
                    -0.0823916643857956,
                    -0.12354417145252228,
                    -0.8230882287025452,
                    -0.23800547420978546,
                    0.1740332990884781,
                    0.4703065752983093
                ],
                [
                    0.04794297367334366,
                    -0.5315585136413574,
                    0.11893840879201889,
                    -0.6291205883026123,
                    -0.393623948097229,
                    -0.4786927402019501
                ],
                [
                    0.3989803194999695,
                    0.03108995407819748,
                    -0.18158657848834991,
                    -0.8552689552307129,
                    -0.11363531649112701,
                    -0.2876303493976593
                ],
                [
                    -0.021652132272720337,
                    -0.40884241461753845,
                    -0.7440149784088135,
                    0.021623043343424797,
                    -0.1275687962770462,
                    0.07751277834177017
                ],
                [
                    0.02800334431231022,
                    -0.2322540283203125,
                    -0.5439754724502563,
                    -0.2670632600784302,
                    -0.11202233284711838,
                    -0.6095737218856812
                ],
                [
                    -0.09180792421102524,
                    -0.17673635482788086,
                    -0.5756366848945618,
                    -0.2958466410636902,
                    0.20358122885227203,
                    0.22301027178764343
                ],
                [
                    0.11284863948822021,
                    -0.5885626077651978,
                    -0.615507185459137,
                    -0.1837013065814972,
                    0.43031933903694153,
                    0.0010675363009795547
                ],
                [
                    2.8151779174804688,
                    0.3119371831417084,
                    -0.07760412991046906,
                    -0.7861815690994263,
                    -0.05953260138630867,
                    0.2821444571018219
                ],
                [
                    -0.050837647169828415,
                    -0.31587058305740356,
                    -0.27753186225891113,
                    -0.65737384557724,
                    -0.24193915724754333,
                    0.02020133286714554
                ],
                [
                    0.7545090913772583,
                    -0.46977874636650085,
                    -0.31584376096725464,
                    -0.3058171272277832,
                    -0.2699313461780548,
                    -0.30817610025405884
                ],
                [
                    0.14178046584129333,
                    -0.643356442451477,
                    -0.3095487058162689,
                    -0.6352686285972595,
                    -0.5568435788154602,
                    -0.25970861315727234
                ]
            ],
            "lin_out.bias": [
                0.20788665115833282,
                -1.0533121824264526,
                -0.27925175428390503,
                0.10061168670654297,
                -0.9521270990371704,
                -0.3537020981311798,
                -0.9018691182136536,
                -0.4622025489807129,
                -1.4645040035247803,
                -0.04372214898467064,
                0.27846235036849976,
                -0.017962997779250145
            ]
        }
    }
}