{
    "experiment_config": {
        "mode": "simple",
        "num_categories": 3,
        "p": 0.16666666666666666,
        "num_nodes": 20,
        "motif_dim": 0,
        "num_train_samples": 5000,
        "num_test_samples": 1500,
        "batch_size": 16,
        "in_dim": 3,
        "hidden_dims": [
            3,
            3
        ],
        "lr": 0.01,
        "use_weighting": true,
        "importance": [
            15.0,
            10.0
        ],
        "phase1_epochs": 0,
        "phase2_epochs": 50,
        "min_epochs": 20,
        "early_stop_patience": 5,
        "early_stop_delta": 0.01,
        "device": "cpu",
        "model_type": "GCN",
        "loss": "BCE",
        "pooling": "gm",
        "gm_p": 1.0,
        "log_dir": "runs/AI/BCE/2/GCN/specify/3, 3, 3/p_gm=1.0",
        "file_path": "AI/BCE/2/GCN/specify/3, 3, 3/p_gm=1.0",
        "add_graph": false,
        "track_embeddings": false,
        "track_singular_values": true,
        "get_elements": false,
        "save": true,
        "seed": 0
    },
    "sparcity": 0.9455966764510513,
    "alignment index": 0.7740427304278042,
    "alignment index CI": [
        0.7066611307611785,
        0.84142433009443
    ],
    "empty graph stats": 0.28248587250709534,
    "singular value ratio": [
        1.6596333265304566,
        1.145756620168686
    ],
    "summary format:": "Key: (Num of active features, Num of accurate feature, Geometry, Collapsed). Loss, s.d. Loss, Count",
    "collapsed percentage": 0.0,
    "summary": {
        "(2, 1, 2, 0)": [
            0.26193668007850646,
            0.0,
            1
        ],
        "(3, 3, 'Failed', 0)": [
            0.1896311789949735,
            0.0,
            1
        ],
        "(1, 0, 1, 0)": [
            0.3453541177113851,
            0.0,
            1
        ],
        "(3, 1, 'Failed', 0)": [
            0.28721357583999635,
            0.04773736206690471,
            2
        ],
        "(3, 3, 3, 0)": [
            0.12971380347013473,
            0.0,
            1
        ],
        "(3, 1, 3, 0)": [
            0.3581678179105123,
            0.0,
            1
        ],
        "(1, 1, 1, 0)": [
            0.3272276167869568,
            0.016889688978679505,
            3
        ]
    },
    "results": [
        {
            "Num of features": 3,
            "Num of active features": 2,
            "Num of accurate feature": 1,
            "Geometry": 2,
            "Collapsed": 0,
            "Loss": 0.26193668007850646,
            "Rank": 3,
            "Singular values": [
                1.9333962202072144,
                1.3161723613739014,
                0.09067297726869583
            ]
        },
        {
            "Num of features": 3,
            "Num of active features": 3,
            "Num of accurate feature": 3,
            "Geometry": "Failed",
            "Collapsed": 0,
            "Loss": 0.1896311789949735,
            "Rank": 3,
            "Singular values": [
                1.8237838745117188,
                1.3442882299423218,
                0.724453866481781
            ]
        },
        {
            "Num of features": 3,
            "Num of active features": 1,
            "Num of accurate feature": 0,
            "Geometry": 1,
            "Collapsed": 0,
            "Loss": 0.3453541177113851,
            "Rank": 2,
            "Singular values": [
                1.4373582601547241,
                0.9721964597702026,
                2.2725705761672543e-08
            ]
        },
        {
            "Num of features": 3,
            "Num of active features": 3,
            "Num of accurate feature": 1,
            "Geometry": "Failed",
            "Collapsed": 0,
            "Loss": 0.23947621377309164,
            "Rank": 3,
            "Singular values": [
                1.758885145187378,
                0.9525002837181091,
                0.31213662028312683
            ]
        },
        {
            "Num of features": 3,
            "Num of active features": 3,
            "Num of accurate feature": 3,
            "Geometry": 3,
            "Collapsed": 0,
            "Loss": 0.12971380347013473,
            "Rank": 3,
            "Singular values": [
                1.424466848373413,
                1.1738961935043335,
                0.6944616436958313
            ]
        },
        {
            "Num of features": 3,
            "Num of active features": 3,
            "Num of accurate feature": 1,
            "Geometry": 3,
            "Collapsed": 0,
            "Loss": 0.3581678179105123,
            "Rank": 3,
            "Singular values": [
                1.809065818786621,
                1.3280025720596313,
                0.708574652671814
            ]
        },
        {
            "Num of features": 3,
            "Num of active features": 1,
            "Num of accurate feature": 1,
            "Geometry": 1,
            "Collapsed": 0,
            "Loss": 0.3332367873191833,
            "Rank": 2,
            "Singular values": [
                1.161503553390503,
                0.8601436018943787,
                1.6108018030536186e-08
            ]
        },
        {
            "Num of features": 3,
            "Num of active features": 1,
            "Num of accurate feature": 1,
            "Geometry": 1,
            "Collapsed": 0,
            "Loss": 0.34424326610565187,
            "Rank": 2,
            "Singular values": [
                1.4340330362319946,
                0.928329586982727,
                6.621418968677517e-09
            ]
        },
        {
            "Num of features": 3,
            "Num of active features": 3,
            "Num of accurate feature": 1,
            "Geometry": "Failed",
            "Collapsed": 0,
            "Loss": 0.33495093790690106,
            "Rank": 3,
            "Singular values": [
                2.5249812602996826,
                1.6455432176589966,
                0.4375866651535034
            ]
        },
        {
            "Num of features": 3,
            "Num of active features": 1,
            "Num of accurate feature": 1,
            "Geometry": 1,
            "Collapsed": 0,
            "Loss": 0.30420279693603514,
            "Rank": 2,
            "Singular values": [
                1.288859248161316,
                0.9364936947822571,
                1.958220252618048e-08
            ]
        }
    ],
    "average embeddings summary": {
        "(2, 1, 2, 0)": {
            "(0, 0, 1)": [
                -1.105002999305725,
                -0.40757817029953003,
                0.014781150966882706
            ],
            "(0, 1, 0)": [
                -1.1408628225326538,
                -0.6359539031982422,
                -0.25975579023361206
            ],
            "(1, 0, 0)": [
                0.11579202860593796,
                -1.312273621559143,
                -0.7630423903465271
            ]
        },
        "(3, 3, 'Failed', 0)": {
            "(0, 0, 1)": [
                -0.7290224432945251,
                -0.40303361415863037,
                -0.8177458643913269
            ],
            "(0, 1, 0)": [
                -0.2575519382953644,
                0.9334824681282043,
                -1.2380850315093994
            ],
            "(1, 0, 0)": [
                0.31951966881752014,
                -0.8570172786712646,
                -0.9941655993461609
            ]
        },
        "(1, 0, 1, 0)": {
            "(0, 1, 0)": [
                -0.553143322467804,
                -0.1795336753129959,
                -0.5173032879829407
            ],
            "(0, 0, 1)": [
                -0.5132473707199097,
                -0.1771775633096695,
                -0.5406690835952759
            ],
            "(1, 0, 0)": [
                0.6090000867843628,
                -0.11090060323476791,
                -1.197933316230774
            ]
        },
        "(3, 1, 'Failed', 0)": {
            "(1, 0, 0)": [
                0.5543258190155029,
                -0.9771291017532349,
                -0.1542481780052185
            ],
            "(0, 1, 0)": [
                -0.5324945449829102,
                -1.1340510845184326,
                -0.7543098330497742
            ],
            "(0, 0, 1)": [
                -0.6313494443893433,
                -0.5186263918876648,
                -0.07956895977258682
            ]
        },
        "(3, 3, 3, 0)": {
            "(0, 1, 0)": [
                -0.4245392680168152,
                0.4164210259914398,
                -0.940270185470581
            ],
            "(1, 0, 0)": [
                0.754650354385376,
                -0.7360185980796814,
                -0.3129669725894928
            ],
            "(0, 0, 1)": [
                -0.657284140586853,
                -0.7382587194442749,
                0.6822388172149658
            ]
        },
        "(3, 1, 3, 0)": {
            "(0, 1, 0)": [
                -0.61761075258255,
                -0.35542911291122437,
                -0.6365021467208862
            ],
            "(0, 0, 1)": [
                -0.8442216515541077,
                -0.9539384245872498,
                0.5857087969779968
            ],
            "(1, 0, 0)": [
                0.32217010855674744,
                -1.3036199808120728,
                -0.9254716634750366
            ]
        },
        "(1, 1, 1, 0)": {
            "(1, 0, 0)": [
                -0.09207277745008469,
                -0.43551063537597656,
                -0.48505252599716187
            ],
            "(0, 0, 1)": [
                -0.24580104649066925,
                -0.3592556416988373,
                -0.3803618550300598
            ],
            "(0, 1, 0)": [
                -1.1258125305175781,
                0.07726398855447769,
                0.21893660724163055
            ]
        }
    },
    "model summary": {
        "(2, 1, 2, 0)": {
            "convs.0.bias": [
                1.017151117324829,
                0.0,
                -1.2851736545562744
            ],
            "convs.0.lin.weight": [
                [
                    -3.25644850730896,
                    0.1609382927417755,
                    -1.5613837242126465
                ],
                [
                    -0.9553484916687012,
                    -0.6622821092605591,
                    -0.41222310066223145
                ],
                [
                    4.947794437408447,
                    -0.07239162176847458,
                    -0.4150189161300659
                ]
            ],
            "convs.1.bias": [
                -1.0211751461029053,
                0.9097193479537964,
                1.5703779458999634
            ],
            "convs.1.lin.weight": [
                [
                    -0.4210350513458252,
                    -0.6295379400253296,
                    4.294577598571777
                ],
                [
                    -1.609736680984497,
                    0.8640007972717285,
                    -3.656444787979126
                ],
                [
                    -1.9733481407165527,
                    -0.6986404657363892,
                    -3.2889926433563232
                ]
            ],
            "lin_out.weight": [
                [
                    6.2020392417907715,
                    -3.442708969116211,
                    -3.7373297214508057
                ],
                [
                    -0.08681918680667877,
                    1.1258832216262817,
                    -0.2571900486946106
                ],
                [
                    0.04303577169775963,
                    2.5170340538024902,
                    3.6394448280334473
                ]
            ],
            "lin_out.bias": [
                -1.6750555038452148,
                -0.5640968084335327,
                1.1765778064727783
            ]
        },
        "(3, 3, 'Failed', 0)": {
            "convs.0.bias": [
                1.3289945125579834,
                -2.1675899028778076,
                -1.094887375831604
            ],
            "convs.0.lin.weight": [
                [
                    -0.203771710395813,
                    -0.07269801944494247,
                    -1.943535566329956
                ],
                [
                    -0.24954313039779663,
                    5.261220455169678,
                    0.4164734482765198
                ],
                [
                    4.597155570983887,
                    -0.6452926397323608,
                    -0.6857684254646301
                ]
            ],
            "convs.1.bias": [
                -1.904549479484558,
                -0.9108350872993469,
                2.0927419662475586
            ],
            "convs.1.lin.weight": [
                [
                    0.9548664689064026,
                    1.900220513343811,
                    3.3474037647247314
                ],
                [
                    0.5511465072631836,
                    7.834288120269775,
                    -2.0019617080688477
                ],
                [
                    -2.8286359310150146,
                    0.4080146253108978,
                    1.0141898393630981
                ]
            ],
            "lin_out.weight": [
                [
                    6.042967796325684,
                    -2.577066421508789,
                    0.2741192877292633
                ],
                [
                    4.5607428550720215,
                    10.273348808288574,
                    0.6240867972373962
                ],
                [
                    -4.563082695007324,
                    -0.9172422289848328,
                    4.343503475189209
                ]
            ],
            "lin_out.bias": [
                -0.5168709754943848,
                -1.242429256439209,
                1.276824951171875
            ]
        },
        "(1, 0, 1, 0)": {
            "convs.0.bias": [
                -0.06643237173557281,
                0.21723215281963348,
                0.0
            ],
            "convs.0.lin.weight": [
                [
                    0.010580706410109997,
                    -0.6664876937866211,
                    -0.35828495025634766
                ],
                [
                    3.069237470626831,
                    -1.8858078718185425,
                    -1.8750295639038086
                ],
                [
                    -0.9078695774078369,
                    -0.9612933397293091,
                    -0.9716606140136719
                ]
            ],
            "convs.1.bias": [
                -1.2724863290786743,
                -0.22201411426067352,
                -0.09600350260734558
            ],
            "convs.1.lin.weight": [
                [
                    0.4676773250102997,
                    3.2130258083343506,
                    0.5052121877670288
                ],
                [
                    -0.6363903880119324,
                    0.18975196778774261,
                    0.05374443531036377
                ],
                [
                    0.3945234715938568,
                    -1.8817695379257202,
                    -0.2876265048980713
                ]
            ],
            "lin_out.weight": [
                [
                    4.2957000732421875,
                    0.6822765469551086,
                    0.2078305035829544
                ],
                [
                    -0.4679846465587616,
                    0.5934968590736389,
                    0.9494030475616455
                ],
                [
                    -0.29889577627182007,
                    0.48607927560806274,
                    1.4411582946777344
                ]
            ],
            "lin_out.bias": [
                -1.2666102647781372,
                -0.3039189279079437,
                0.08332269638776779
            ]
        },
        "(3, 1, 'Failed', 0)": {
            "convs.0.bias": [
                -1.8841112852096558,
                1.1821001768112183,
                0.0
            ],
            "convs.0.lin.weight": [
                [
                    4.771844863891602,
                    -0.42165228724479675,
                    0.10806067287921906
                ],
                [
                    -0.12768234312534332,
                    1.568145990371704,
                    -1.7008469104766846
                ],
                [
                    -0.08747148513793945,
                    -0.09611952304840088,
                    -0.7789784669876099
                ]
            ],
            "convs.1.bias": [
                -0.9741873741149902,
                1.4778581857681274,
                2.100813627243042
            ],
            "convs.1.lin.weight": [
                [
                    8.015957832336426,
                    0.3167036175727844,
                    -0.9756808280944824
                ],
                [
                    -1.1943546533584595,
                    -1.9692679643630981,
                    0.8767529726028442
                ],
                [
                    1.7020059823989868,
                    -2.158921003341675,
                    -0.06286334991455078
                ]
            ],
            "lin_out.weight": [
                [
                    14.12067985534668,
                    0.7401763200759888,
                    1.4511561393737793
                ],
                [
                    -0.7458353638648987,
                    -1.0013798475265503,
                    -2.1522152423858643
                ],
                [
                    -2.3144495487213135,
                    3.6275529861450195,
                    3.401441812515259
                ]
            ],
            "lin_out.bias": [
                -1.4103502035140991,
                -2.9054534435272217,
                0.9251836538314819
            ]
        },
        "(3, 3, 3, 0)": {
            "convs.0.bias": [
                0.13375209271907806,
                -1.7158563137054443,
                -1.9859890937805176
            ],
            "convs.0.lin.weight": [
                [
                    -0.3593173623085022,
                    4.398501873016357,
                    -0.1471259742975235
                ],
                [
                    5.1043381690979,
                    -0.1341913938522339,
                    -0.6535739898681641
                ],
                [
                    -0.5704914927482605,
                    -0.011114508844912052,
                    5.692256927490234
                ]
            ],
            "convs.1.bias": [
                -0.25189709663391113,
                -1.3308777809143066,
                -0.5018171072006226
            ],
            "convs.1.lin.weight": [
                [
                    -0.25628116726875305,
                    5.1094489097595215,
                    -1.7269238233566284
                ],
                [
                    2.3646931648254395,
                    -0.44616371393203735,
                    -0.29205355048179626
                ],
                [
                    -0.7414211630821228,
                    1.7361875772476196,
                    6.092611312866211
                ]
            ],
            "lin_out.weight": [
                [
                    10.194010734558105,
                    0.7156206369400024,
                    2.123640298843384
                ],
                [
                    -0.9871684312820435,
                    3.298022985458374,
                    -1.6742198467254639
                ],
                [
                    -4.082993984222412,
                    1.4338878393173218,
                    8.531643867492676
                ]
            ],
            "lin_out.bias": [
                -0.9732599258422852,
                -1.923600196838379,
                -1.5071290731430054
            ]
        },
        "(3, 1, 3, 0)": {
            "convs.0.bias": [
                0.3511674106121063,
                0.0,
                0.4581236243247986
            ],
            "convs.0.lin.weight": [
                [
                    3.8585517406463623,
                    -2.65183687210083,
                    -1.8340137004852295
                ],
                [
                    -0.08501732349395752,
                    -0.7798793315887451,
                    -0.006149888038635254
                ],
                [
                    -3.6389882564544678,
                    -2.236804246902466,
                    3.2202870845794678
                ]
            ],
            "convs.1.bias": [
                -1.2834733724594116,
                1.0604623556137085,
                -1.4685229063034058
            ],
            "convs.1.lin.weight": [
                [
                    2.2055342197418213,
                    0.8649715185165405,
                    -0.5253885984420776
                ],
                [
                    -2.2429094314575195,
                    0.28746259212493896,
                    -1.494546890258789
                ],
                [
                    -0.6535987854003906,
                    -0.5802934169769287,
                    2.982635259628296
                ]
            ],
            "lin_out.weight": [
                [
                    4.116128444671631,
                    -1.402032732963562,
                    0.6137241721153259
                ],
                [
                    -0.7695717811584473,
                    2.5729219913482666,
                    -1.1087372303009033
                ],
                [
                    1.1363849639892578,
                    -0.5510302782058716,
                    3.8600475788116455
                ]
            ],
            "lin_out.bias": [
                -1.39594566822052,
                0.39598363637924194,
                -1.227080225944519
            ]
        },
        "(1, 1, 1, 0)": {
            "convs.0.bias": [
                0.0,
                0.31356656551361084,
                -0.06005486473441124
            ],
            "convs.0.lin.weight": [
                [
                    -0.011493444442749023,
                    -0.410869836807251,
                    -0.5710766315460205
                ],
                [
                    -2.4998557567596436,
                    3.8104231357574463,
                    -2.8983888626098633
                ],
                [
                    -0.7123433351516724,
                    -0.3085191249847412,
                    -0.04265826940536499
                ]
            ],
            "convs.1.bias": [
                0.6478262543678284,
                -0.8025267124176025,
                -0.988930344581604
            ],
            "convs.1.lin.weight": [
                [
                    -0.8135901689529419,
                    -2.4514153003692627,
                    0.8393206596374512
                ],
                [
                    0.8765392303466797,
                    1.2159942388534546,
                    -0.10337582975625992
                ],
                [
                    0.5869661569595337,
                    1.6694411039352417,
                    0.7590546011924744
                ]
            ],
            "lin_out.weight": [
                [
                    1.4829537868499756,
                    0.438852459192276,
                    -0.03976011648774147
                ],
                [
                    -1.7479382753372192,
                    1.5702744722366333,
                    3.3905913829803467
                ],
                [
                    1.3965845108032227,
                    0.2820422053337097,
                    0.08657705783843994
                ]
            ],
            "lin_out.bias": [
                -0.6988613605499268,
                -1.5055487155914307,
                -0.4846060574054718
            ]
        }
    }
}