{
    "experiment_config": {
        "mode": "simple",
        "num_categories": 3,
        "p": 0.16666666666666666,
        "num_nodes": 20,
        "motif_dim": 0,
        "num_train_samples": 5000,
        "num_test_samples": 1500,
        "batch_size": 16,
        "in_dim": 3,
        "hidden_dims": [
            3,
            3
        ],
        "lr": 0.01,
        "use_weighting": true,
        "importance": [
            15.0,
            10.0
        ],
        "phase1_epochs": 0,
        "phase2_epochs": 50,
        "min_epochs": 20,
        "early_stop_patience": 5,
        "early_stop_delta": 0.01,
        "device": "cpu",
        "model_type": "GIN",
        "loss": "BCE",
        "pooling": "gm",
        "gm_p": 1.0,
        "log_dir": "runs/AI/BCE/2/GIN/specify/3, 3, 3/p_gm=1.0",
        "file_path": "AI/BCE/2/GIN/specify/3, 3, 3/p_gm=1.0",
        "add_graph": false,
        "track_embeddings": false,
        "track_singular_values": true,
        "get_elements": false,
        "save": true,
        "seed": 0
    },
    "sparcity": 0.9455966764510513,
    "alignment index": 0.8216329910568332,
    "alignment index CI": [
        0.7255081739647595,
        0.9177578081489068
    ],
    "empty graph stats": 0.10196571797132492,
    "singular value ratio": [
        4.57263724009196,
        2.677981376647949
    ],
    "summary format:": "Key: (Num of active features, Num of accurate feature, Geometry, Collapsed). Loss, s.d. Loss, Count",
    "collapsed percentage": 0.0,
    "summary": {
        "(2, 2, 2, 0)": [
            0.17947945442464616,
            0.025411601297364757,
            3
        ],
        "(1, 1, 1, 0)": [
            0.2846079000631968,
            0.0057506155444536945,
            3
        ],
        "(3, 3, 3, 0)": [
            0.22364195974667866,
            0.008111212571461995,
            2
        ],
        "(0, 0, 'Failed', 0)": [
            0.36713878711064657,
            0.0,
            1
        ],
        "(3, 2, 'Failed', 0)": [
            0.18898675934473674,
            0.0,
            1
        ]
    },
    "results": [
        {
            "Num of features": 3,
            "Num of active features": 2,
            "Num of accurate feature": 2,
            "Geometry": 2,
            "Collapsed": 0,
            "Loss": 0.1890946550766627,
            "Rank": 3,
            "Singular values": [
                5.487307071685791,
                3.186979293823242,
                1.485071063041687
            ]
        },
        {
            "Num of features": 3,
            "Num of active features": 1,
            "Num of accurate feature": 1,
            "Geometry": 1,
            "Collapsed": 0,
            "Loss": 0.28694270984331766,
            "Rank": 2,
            "Singular values": [
                2.9232802391052246,
                2.052157402038574,
                1.3820195476910158e-07
            ]
        },
        {
            "Num of features": 3,
            "Num of active features": 2,
            "Num of accurate feature": 2,
            "Geometry": 2,
            "Collapsed": 0,
            "Loss": 0.20465993769963584,
            "Rank": 3,
            "Singular values": [
                4.699522018432617,
                2.004638671875,
                1.3171346187591553
            ]
        },
        {
            "Num of features": 3,
            "Num of active features": 3,
            "Num of accurate feature": 3,
            "Geometry": 3,
            "Collapsed": 0,
            "Loss": 0.21553074717521667,
            "Rank": 3,
            "Singular values": [
                5.2310614585876465,
                3.0112533569335938,
                1.9740254878997803
            ]
        },
        {
            "Num of features": 3,
            "Num of active features": 2,
            "Num of accurate feature": 2,
            "Geometry": 2,
            "Collapsed": 0,
            "Loss": 0.14468377049763997,
            "Rank": 3,
            "Singular values": [
                5.257412910461426,
                4.2595696449279785,
                1.8837015628814697
            ]
        },
        {
            "Num of features": 3,
            "Num of active features": 0,
            "Num of accurate feature": 0,
            "Geometry": "Failed",
            "Collapsed": 0,
            "Loss": 0.36713878711064657,
            "Rank": 1,
            "Singular values": [
                0.33632692694664,
                2.5587567620277696e-09,
                2.5716184390289776e-11
            ]
        },
        {
            "Num of features": 3,
            "Num of active features": 3,
            "Num of accurate feature": 3,
            "Geometry": 3,
            "Collapsed": 0,
            "Loss": 0.23175317231814066,
            "Rank": 3,
            "Singular values": [
                3.6584129333496094,
                1.8949354887008667,
                1.5518434047698975
            ]
        },
        {
            "Num of features": 3,
            "Num of active features": 1,
            "Num of accurate feature": 1,
            "Geometry": 1,
            "Collapsed": 0,
            "Loss": 0.2901870399316152,
            "Rank": 2,
            "Singular values": [
                4.061635494232178,
                1.4570724964141846,
                2.9404247925413074e-09
            ]
        },
        {
            "Num of features": 3,
            "Num of active features": 3,
            "Num of accurate feature": 2,
            "Geometry": "Failed",
            "Collapsed": 0,
            "Loss": 0.18898675934473674,
            "Rank": 3,
            "Singular values": [
                5.437587738037109,
                5.231224536895752,
                2.1045663356781006
            ]
        },
        {
            "Num of features": 3,
            "Num of active features": 1,
            "Num of accurate feature": 1,
            "Geometry": 1,
            "Collapsed": 0,
            "Loss": 0.2766939504146576,
            "Rank": 2,
            "Singular values": [
                4.397515296936035,
                1.004001498222351,
                1.7194224875291482e-16
            ]
        }
    ],
    "average embeddings summary": {
        "(2, 2, 2, 0)": {
            "(0, 0, 1)": [
                -1.54856276512146,
                -2.3733086585998535,
                2.394448757171631
            ],
            "(0, 1, 0)": [
                -2.7045421600341797,
                4.133208274841309,
                -1.0504449605941772
            ],
            "(1, 0, 0)": [
                0.0803888663649559,
                -1.2433316707611084,
                -1.2864892482757568
            ]
        },
        "(1, 1, 1, 0)": {
            "(0, 0, 1)": [
                -0.932466447353363,
                -1.110172152519226,
                0.03611142188310623
            ],
            "(0, 1, 0)": [
                -1.7626181840896606,
                0.7368236184120178,
                -2.177454948425293
            ],
            "(1, 0, 0)": [
                -0.8906874060630798,
                -1.2031257152557373,
                0.1475137323141098
            ]
        },
        "(3, 3, 3, 0)": {
            "(1, 0, 0)": [
                -1.2015215158462524,
                -1.082270622253418,
                -1.2148185968399048
            ],
            "(0, 1, 0)": [
                -2.1764461994171143,
                2.8214211463928223,
                -0.41659992933273315
            ],
            "(0, 0, 1)": [
                -0.5534118413925171,
                -2.475231170654297,
                4.1150641441345215
            ]
        },
        "(0, 0, 'Failed', 0)": {
            "(0, 1, 0)": [
                0.022997846826910973,
                0.1923849731683731,
                0.012821407057344913
            ],
            "(0, 0, 1)": [
                0.022997844964265823,
                0.1923849731683731,
                0.012821407057344913
            ],
            "(1, 0, 0)": [
                0.022997844964265823,
                0.1923849880695343,
                0.012821407988667488
            ]
        },
        "(3, 2, 'Failed', 0)": {
            "(1, 0, 0)": [
                0.8550556898117065,
                -4.645781993865967,
                -2.2179462909698486
            ],
            "(0, 0, 1)": [
                -2.4685428142547607,
                -1.3622992038726807,
                0.6473636031150818
            ],
            "(0, 1, 0)": [
                -4.420832633972168,
                0.4565378725528717,
                -2.4510700702667236
            ]
        }
    },
    "model summary": {
        "(2, 2, 2, 0)": {
            "convs.0.eps": [
                -0.05704750493168831
            ],
            "convs.0.nn.0.weight": [
                [
                    0.02084820717573166,
                    -0.04232928156852722,
                    1.3046449422836304
                ],
                [
                    -0.5355907082557678,
                    -0.3634638786315918,
                    -0.14616501331329346
                ],
                [
                    -0.5941908359527588,
                    1.2649328708648682,
                    -0.029869426041841507
                ]
            ],
            "convs.0.nn.0.bias": [
                -2.1343202590942383,
                -0.4033602476119995,
                -1.7504199743270874
            ],
            "convs.0.nn.2.weight": [
                [
                    -0.559913694858551,
                    0.4962891638278961,
                    1.5923454761505127
                ],
                [
                    1.9585877656936646,
                    0.03036375157535076,
                    -0.4187721312046051
                ],
                [
                    0.37149477005004883,
                    -0.539068877696991,
                    -0.18013976514339447
                ]
            ],
            "convs.0.nn.2.bias": [
                -1.2485649585723877,
                -1.4371191263198853,
                0.034572359174489975
            ],
            "convs.1.eps": [
                2.048417806625366
            ],
            "convs.1.nn.0.weight": [
                [
                    -0.2888566851615906,
                    2.0100860595703125,
                    0.16342490911483765
                ],
                [
                    2.220208168029785,
                    0.012374135665595531,
                    -0.5760555267333984
                ],
                [
                    -0.038503002375364304,
                    -0.3611934185028076,
                    -0.5380639433860779
                ]
            ],
            "convs.1.nn.0.bias": [
                -0.5133297443389893,
                -0.5787656307220459,
                -0.6675365567207336
            ],
            "convs.1.nn.2.weight": [
                [
                    -0.6581642627716064,
                    -1.0485743284225464,
                    -0.1864105761051178
                ],
                [
                    -0.45655834674835205,
                    2.024360418319702,
                    -0.2503863573074341
                ],
                [
                    1.4872533082962036,
                    0.08887477219104767,
                    0.321738600730896
                ]
            ],
            "convs.1.nn.2.bias": [
                0.08038687705993652,
                -1.243329644203186,
                -1.2864875793457031
            ],
            "lin_out.weight": [
                [
                    1.0630736351013184,
                    0.011985225602984428,
                    -0.14801369607448578
                ],
                [
                    -1.1974809169769287,
                    5.514031410217285,
                    0.9303514957427979
                ],
                [
                    -0.5726662278175354,
                    -0.6858799457550049,
                    6.425267219543457
                ]
            ],
            "lin_out.bias": [
                -0.45185282826423645,
                -1.0926058292388916,
                -1.3115254640579224
            ]
        },
        "(1, 1, 1, 0)": {
            "convs.0.eps": [
                0.18072299659252167
            ],
            "convs.0.nn.0.weight": [
                [
                    -1.067077398300171,
                    -0.9194225668907166,
                    -1.1934868097305298
                ],
                [
                    0.7371504306793213,
                    0.7205577492713928,
                    -0.11409233510494232
                ],
                [
                    -0.535513699054718,
                    1.3745838403701782,
                    -0.0777030736207962
                ]
            ],
            "convs.0.nn.0.bias": [
                0.7637389898300171,
                -1.6824418306350708,
                -1.385744571685791
            ],
            "convs.0.nn.2.weight": [
                [
                    0.3471871614456177,
                    0.9731639623641968,
                    1.3377411365509033
                ],
                [
                    0.8545839190483093,
                    -1.2974218130111694,
                    -2.3660085201263428
                ],
                [
                    -0.5458667874336243,
                    0.12473537027835846,
                    -0.3239988684654236
                ]
            ],
            "convs.0.nn.2.bias": [
                -1.6331548690795898,
                0.3556957244873047,
                -0.3749377131462097
            ],
            "convs.1.eps": [
                0.5335543155670166
            ],
            "convs.1.nn.0.weight": [
                [
                    -0.2999086380004883,
                    0.017260650172829628,
                    0.1133805364370346
                ],
                [
                    -0.6031604409217834,
                    -0.11190320551395416,
                    0.24591033160686493
                ],
                [
                    1.465099811553955,
                    0.5105146169662476,
                    -0.4733045995235443
                ]
            ],
            "convs.1.nn.0.bias": [
                -0.2046588957309723,
                -0.01716393232345581,
                -0.21503253281116486
            ],
            "convs.1.nn.2.weight": [
                [
                    0.12063366174697876,
                    0.2123759686946869,
                    -0.41895532608032227
                ],
                [
                    -0.11091045290231705,
                    0.06535352021455765,
                    0.9321279525756836
                ],
                [
                    -0.05046379938721657,
                    -0.11051540076732635,
                    -1.1171268224716187
                ]
            ],
            "convs.1.nn.2.bias": [
                -0.3288113474845886,
                -2.4532294273376465,
                1.6457269191741943
            ],
            "lin_out.weight": [
                [
                    0.882457971572876,
                    -0.4578200578689575,
                    0.5019766092300415
                ],
                [
                    0.8923627138137817,
                    9.16679859161377,
                    -2.790407419204712
                ],
                [
                    0.7854697704315186,
                    -0.2245367169380188,
                    0.6303970217704773
                ]
            ],
            "lin_out.bias": [
                -0.005427837371826172,
                -2.374858856201172,
                -0.3177787661552429
            ]
        },
        "(3, 3, 3, 0)": {
            "convs.0.eps": [
                -0.028866801410913467
            ],
            "convs.0.nn.0.weight": [
                [
                    0.22463075816631317,
                    -0.5709580183029175,
                    -0.5893157124519348
                ],
                [
                    0.3989872932434082,
                    1.4155442714691162,
                    -0.41371116042137146
                ],
                [
                    -0.19333603978157043,
                    -0.07770591974258423,
                    1.2199617624282837
                ]
            ],
            "convs.0.nn.0.bias": [
                1.6397404670715332,
                -0.6251239776611328,
                -1.0452699661254883
            ],
            "convs.0.nn.2.weight": [
                [
                    -1.8247789144515991,
                    -0.4036865532398224,
                    1.2561153173446655
                ],
                [
                    1.2583783864974976,
                    -0.34437188506126404,
                    0.10773513466119766
                ],
                [
                    -2.1673388481140137,
                    1.3189986944198608,
                    -0.19910897314548492
                ]
            ],
            "convs.0.nn.2.bias": [
                -1.0488362312316895,
                0.8558294177055359,
                -0.2797218859195709
            ],
            "convs.1.eps": [
                1.7170007228851318
            ],
            "convs.1.nn.0.weight": [
                [
                    -0.16880999505519867,
                    -0.6503329277038574,
                    -0.05799234285950661
                ],
                [
                    -0.06376397609710693,
                    -1.7870842218399048,
                    0.9043671488761902
                ],
                [
                    2.048967123031616,
                    -0.010883850045502186,
                    -0.5084736943244934
                ]
            ],
            "convs.1.nn.0.bias": [
                -0.32559889554977417,
                -1.488951563835144,
                -1.2087199687957764
            ],
            "convs.1.nn.2.weight": [
                [
                    -0.18090753257274628,
                    -0.6320918202400208,
                    0.276078462600708
                ],
                [
                    -0.15881294012069702,
                    2.530123472213745,
                    -0.5938946008682251
                ],
                [
                    -0.08631512522697449,
                    0.513471245765686,
                    2.2678215503692627
                ]
            ],
            "convs.1.nn.2.bias": [
                -1.202834129333496,
                -1.0794408321380615,
                -1.2256145477294922
            ],
            "lin_out.weight": [
                [
                    1.0506088733673096,
                    -0.23140078783035278,
                    -0.8349132537841797
                ],
                [
                    0.5700330138206482,
                    5.637793064117432,
                    1.551263689994812
                ],
                [
                    1.8831223249435425,
                    -0.7370051741600037,
                    5.188945293426514
                ]
            ],
            "lin_out.bias": [
                0.024930885061621666,
                -0.5602908730506897,
                -1.660607099533081
            ]
        },
        "(0, 0, 'Failed', 0)": {
            "convs.0.eps": [
                -0.16948123276233673
            ],
            "convs.0.nn.0.weight": [
                [
                    0.1344938576221466,
                    -0.2935366928577423,
                    0.03909209370613098
                ],
                [
                    0.3449885845184326,
                    0.3605656623840332,
                    -0.6866111159324646
                ],
                [
                    -0.38190582394599915,
                    -0.23871517181396484,
                    -0.3681768476963043
                ]
            ],
            "convs.0.nn.0.bias": [
                0.39553073048591614,
                -0.2453947514295578,
                -0.3829798400402069
            ],
            "convs.0.nn.2.weight": [
                [
                    -0.0186158437281847,
                    -0.06581823527812958,
                    0.23555277287960052
                ],
                [
                    -0.6835229992866516,
                    -0.6080870032310486,
                    -0.569129467010498
                ],
                [
                    0.07242773473262787,
                    0.11905048787593842,
                    -0.35858017206192017
                ]
            ],
            "convs.0.nn.2.bias": [
                0.38874194025993347,
                0.22799453139305115,
                -0.10650719702243805
            ],
            "convs.1.eps": [
                -0.12260247766971588
            ],
            "convs.1.nn.0.weight": [
                [
                    -0.6184369325637817,
                    -0.4001719653606415,
                    0.34067502617836
                ],
                [
                    -0.4360071122646332,
                    0.1616622358560562,
                    0.4001673460006714
                ],
                [
                    0.2172536849975586,
                    -0.516849935054779,
                    0.3664872944355011
                ]
            ],
            "convs.1.nn.0.bias": [
                0.056265123188495636,
                0.22977277636528015,
                -0.4918481111526489
            ],
            "convs.1.nn.2.weight": [
                [
                    0.22397319972515106,
                    0.29292213916778564,
                    -0.5662034749984741
                ],
                [
                    -0.04665881767868996,
                    0.38453614711761475,
                    -0.5252547264099121
                ],
                [
                    0.058418840169906616,
                    0.10266490280628204,
                    0.0453752726316452
                ]
            ],
            "convs.1.nn.2.bias": [
                0.0229958463460207,
                0.19238296151161194,
                0.012819409370422363
            ],
            "lin_out.weight": [
                [
                    -0.0803074911236763,
                    -0.6463971734046936,
                    -0.05832906812429428
                ],
                [
                    -0.07882280647754669,
                    0.06324630230665207,
                    -0.058288078755140305
                ],
                [
                    -0.024787355214357376,
                    -0.2649112343788147,
                    -0.018136173486709595
                ]
            ],
            "lin_out.bias": [
                -0.9365212917327881,
                -0.9747685194015503,
                -1.0336267948150635
            ]
        },
        "(3, 2, 'Failed', 0)": {
            "convs.0.eps": [
                -0.30444180965423584
            ],
            "convs.0.nn.0.weight": [
                [
                    0.26520347595214844,
                    -0.11236914247274399,
                    -1.7602216005325317
                ],
                [
                    -0.108178049325943,
                    1.6326673030853271,
                    0.11010418087244034
                ],
                [
                    1.350450038909912,
                    -0.1535026580095291,
                    -0.5734692811965942
                ]
            ],
            "convs.0.nn.0.bias": [
                1.0275827646255493,
                -3.125382423400879,
                -1.5322661399841309
            ],
            "convs.0.nn.2.weight": [
                [
                    0.6830064058303833,
                    3.226579189300537,
                    -1.4033572673797607
                ],
                [
                    -0.5771240592002869,
                    0.6540555357933044,
                    1.5734902620315552
                ],
                [
                    -0.5256505012512207,
                    0.6716557741165161,
                    1.1759041547775269
                ]
            ],
            "convs.0.nn.2.bias": [
                -0.00874647032469511,
                -0.9116600155830383,
                -0.7533494830131531
            ],
            "convs.1.eps": [
                1.1899747848510742
            ],
            "convs.1.nn.0.weight": [
                [
                    -0.10869970917701721,
                    1.0927129983901978,
                    0.7039136290550232
                ],
                [
                    -0.09115870296955109,
                    1.6049175262451172,
                    1.0395859479904175
                ],
                [
                    1.152137279510498,
                    -0.22052739560604095,
                    -0.5976313948631287
                ]
            ],
            "convs.1.nn.0.bias": [
                -0.315218448638916,
                -0.07263853400945663,
                -0.3963469862937927
            ],
            "convs.1.nn.2.weight": [
                [
                    1.33486807346344,
                    1.1842180490493774,
                    -0.6327974796295166
                ],
                [
                    -1.2469757795333862,
                    -1.2102261781692505,
                    0.5899642705917358
                ],
                [
                    -0.6499804258346558,
                    -1.0977336168289185,
                    -0.9921911358833313
                ]
            ],
            "convs.1.nn.2.bias": [
                -0.9809901714324951,
                -2.749150514602661,
                2.979968786239624
            ],
            "lin_out.weight": [
                [
                    3.0752899646759033,
                    -1.2507530450820923,
                    -2.5071587562561035
                ],
                [
                    0.2209979146718979,
                    3.2980289459228516,
                    -3.9525012969970703
                ],
                [
                    0.3449528217315674,
                    0.14635170996189117,
                    1.3638412952423096
                ]
            ],
            "lin_out.bias": [
                -1.5538740158081055,
                -2.910963535308838,
                0.673427939414978
            ]
        }
    }
}