{
    "experiment_config": {
        "mode": "simple",
        "num_categories": 3,
        "p": 0.16666666666666666,
        "num_nodes": 20,
        "motif_dim": 0,
        "num_train_samples": 5000,
        "num_test_samples": 1500,
        "batch_size": 16,
        "in_dim": 3,
        "hidden_dims": [
            3,
            3
        ],
        "lr": 0.01,
        "use_weighting": true,
        "importance": [
            15.0,
            10.0
        ],
        "phase1_epochs": 0,
        "phase2_epochs": 50,
        "min_epochs": 20,
        "early_stop_patience": 5,
        "early_stop_delta": 0.005,
        "device": "cpu",
        "model_type": "GCN",
        "loss": "BCE",
        "pooling": "gm",
        "gm_p": 6.0,
        "log_dir": "runs/AI/BCE/2/GCN/specify/3, 3, 3/p_gm=6.0",
        "file_path": "AI/BCE/2/GCN/specify/3, 3, 3/p_gm=6.0",
        "add_graph": false,
        "track_embeddings": false,
        "track_singular_values": true,
        "get_elements": false,
        "save": true,
        "seed": 0
    },
    "sparcity": 0.9455966764510513,
    "alignment index": 0.8396524370876776,
    "alignment index CI": [
        0.7810976997605625,
        0.8982071744147926
    ],
    "empty graph stats": 0.3124626874923706,
    "singular value ratio": [
        4.418254216512044,
        2.4283924632602267
    ],
    "summary format:": "Key: (Num of active features, Num of accurate feature, Geometry, Collapsed). Loss, s.d. Loss, Count",
    "collapsed percentage": 0.0,
    "summary": {
        "(2, 2, 2, 0)": [
            0.20795157488187155,
            0.0,
            1
        ],
        "(1, 1, 1, 0)": [
            0.2925083792010943,
            0.0012557815114657145,
            2
        ],
        "(3, 3, 'Failed', 0)": [
            0.07618538761138915,
            0.0,
            1
        ],
        "(3, 3, 3, 0)": [
            0.03055955042506684,
            0.00248384926905236,
            4
        ],
        "(0, 0, 'Failed', 0)": [
            0.37597235131263734,
            0.0,
            1
        ],
        "(2, 2, 'Failed', 0)": [
            0.21048301037152609,
            0.0,
            1
        ]
    },
    "results": [
        {
            "Num of features": 3,
            "Num of active features": 2,
            "Num of accurate feature": 2,
            "Geometry": 2,
            "Collapsed": 0,
            "Loss": 0.20795157488187155,
            "Rank": 3,
            "Singular values": [
                8.204312324523926,
                4.806838035583496,
                1.730164885520935
            ]
        },
        {
            "Num of features": 3,
            "Num of active features": 1,
            "Num of accurate feature": 1,
            "Geometry": 1,
            "Collapsed": 0,
            "Loss": 0.2912525976896286,
            "Rank": 3,
            "Singular values": [
                2.5517520904541016,
                1.3311095237731934,
                5.309882908477448e-05
            ]
        },
        {
            "Num of features": 3,
            "Num of active features": 3,
            "Num of accurate feature": 3,
            "Geometry": "Failed",
            "Collapsed": 0,
            "Loss": 0.07618538761138915,
            "Rank": 3,
            "Singular values": [
                6.809774875640869,
                2.0361106395721436,
                1.6181728839874268
            ]
        },
        {
            "Num of features": 3,
            "Num of active features": 1,
            "Num of accurate feature": 1,
            "Geometry": 1,
            "Collapsed": 0,
            "Loss": 0.29376416071256,
            "Rank": 3,
            "Singular values": [
                3.8906118869781494,
                1.0248407125473022,
                0.004923881962895393
            ]
        },
        {
            "Num of features": 3,
            "Num of active features": 3,
            "Num of accurate feature": 3,
            "Geometry": 3,
            "Collapsed": 0,
            "Loss": 0.033853288410813545,
            "Rank": 3,
            "Singular values": [
                3.7600173950195312,
                3.1420133113861084,
                0.720663845539093
            ]
        },
        {
            "Num of features": 3,
            "Num of active features": 3,
            "Num of accurate feature": 3,
            "Geometry": 3,
            "Collapsed": 0,
            "Loss": 0.027298008230204382,
            "Rank": 3,
            "Singular values": [
                2.9830384254455566,
                2.2304301261901855,
                0.2979981601238251
            ]
        },
        {
            "Num of features": 3,
            "Num of active features": 0,
            "Num of accurate feature": 0,
            "Geometry": "Failed",
            "Collapsed": 0,
            "Loss": 0.37597235131263734,
            "Rank": 3,
            "Singular values": [
                3.3773038387298584,
                0.3759700059890747,
                0.0014313418650999665
            ]
        },
        {
            "Num of features": 3,
            "Num of active features": 2,
            "Num of accurate feature": 2,
            "Geometry": "Failed",
            "Collapsed": 0,
            "Loss": 0.21048301037152609,
            "Rank": 3,
            "Singular values": [
                4.340731143951416,
                1.742383360862732,
                0.9655044078826904
            ]
        },
        {
            "Num of features": 3,
            "Num of active features": 3,
            "Num of accurate feature": 3,
            "Geometry": 3,
            "Collapsed": 0,
            "Loss": 0.031806611876934766,
            "Rank": 3,
            "Singular values": [
                3.248441219329834,
                2.4263510704040527,
                0.4269201159477234
            ]
        },
        {
            "Num of features": 3,
            "Num of active features": 3,
            "Num of accurate feature": 3,
            "Geometry": 3,
            "Collapsed": 0,
            "Loss": 0.029280293182314683,
            "Rank": 3,
            "Singular values": [
                3.9756085872650146,
                3.115455389022827,
                1.1779662370681763
            ]
        }
    ],
    "average embeddings summary": {
        "(2, 2, 2, 0)": {
            "(0, 0, 1)": [
                -0.6669499278068542,
                -3.6929259300231934,
                -4.57138204574585
            ],
            "(0, 1, 0)": [
                -0.35503605008125305,
                2.1375021934509277,
                -4.337494373321533
            ],
            "(1, 0, 0)": [
                -3.0319931507110596,
                2.1032001972198486,
                -4.615689754486084
            ]
        },
        "(1, 1, 1, 0)": {
            "(0, 0, 1)": [
                -0.1000007763504982,
                -0.6205558180809021,
                1.1774901151657104
            ],
            "(0, 1, 0)": [
                -0.1000005230307579,
                -0.617793619632721,
                1.2041112184524536
            ],
            "(1, 0, 0)": [
                -0.10010486841201782,
                -1.0087859630584717,
                -1.9059107303619385
            ]
        },
        "(3, 3, 'Failed', 0)": {
            "(0, 1, 0)": [
                -2.274966239929199,
                -0.9550631642341614,
                -2.181551218032837
            ],
            "(0, 0, 1)": [
                -0.8211995959281921,
                -2.96884822845459,
                -2.4273643493652344
            ],
            "(1, 0, 0)": [
                -0.8298388123512268,
                -1.0729758739471436,
                -5.006999492645264
            ]
        },
        "(3, 3, 3, 0)": {
            "(0, 1, 0)": [
                -2.5172343254089355,
                0.5529947876930237,
                -0.9762046933174133
            ],
            "(1, 0, 0)": [
                0.7033817172050476,
                -3.340998888015747,
                -1.0261660814285278
            ],
            "(0, 0, 1)": [
                0.9042773246765137,
                0.610178530216217,
                1.7418427467346191
            ]
        },
        "(0, 0, 'Failed', 0)": {
            "(1, 0, 0)": [
                0.9461139440536499,
                -1.216775894165039,
                -1.4742168188095093
            ],
            "(0, 0, 1)": [
                1.2192803621292114,
                -0.8927639126777649,
                -1.1027162075042725
            ],
            "(0, 1, 0)": [
                1.1385042667388916,
                -0.935210645198822,
                -1.1524238586425781
            ]
        },
        "(2, 2, 'Failed', 0)": {
            "(0, 0, 1)": [
                -2.4510693550109863,
                0.22266899049282074,
                1.6949788331985474
            ],
            "(1, 0, 0)": [
                -2.302654266357422,
                0.24019184708595276,
                -0.260506808757782
            ],
            "(0, 1, 0)": [
                -2.247671604156494,
                1.8401010036468506,
                -0.11831650882959366
            ]
        }
    },
    "model summary": {
        "(2, 2, 2, 0)": {
            "convs.0.bias": [
                0.3790636658668518,
                0.0,
                0.06780606508255005
            ],
            "convs.0.lin.weight": [
                [
                    3.224215507507324,
                    -0.5885188579559326,
                    0.2990642786026001
                ],
                [
                    -0.9553484916687012,
                    -0.6622821092605591,
                    -0.41222310066223145
                ],
                [
                    -0.21930158138275146,
                    -0.7319023013114929,
                    3.212921142578125
                ]
            ],
            "convs.1.bias": [
                1.5708686113357544,
                2.7049403190612793,
                -3.9586541652679443
            ],
            "convs.1.lin.weight": [
                [
                    -2.5452799797058105,
                    -0.6295379400253296,
                    0.17473961412906647
                ],
                [
                    -0.24183152616024017,
                    0.8640007972717285,
                    -4.0095696449279785
                ],
                [
                    -0.5610738396644592,
                    -0.6986404657363892,
                    -0.4730025827884674
                ]
            ],
            "lin_out.weight": [
                [
                    -6.401572227478027,
                    0.12458398193120956,
                    2.5187668800354004
                ],
                [
                    0.4893845021724701,
                    0.4422195851802826,
                    0.46769410371780396
                ],
                [
                    0.2183869481086731,
                    -5.415828227996826,
                    2.7305898666381836
                ]
            ],
            "lin_out.bias": [
                -4.051102161407471,
                1.1001580953598022,
                -1.548857569694519
            ]
        },
        "(1, 1, 1, 0)": {
            "convs.0.bias": [
                -0.13441574573516846,
                -0.11501666903495789,
                -0.7516635060310364
            ],
            "convs.0.lin.weight": [
                [
                    -0.009016883559525013,
                    -0.06759344786405563,
                    -0.19768154621124268
                ],
                [
                    0.013796992599964142,
                    -0.28837916254997253,
                    -0.07705745846033096
                ],
                [
                    3.2219204902648926,
                    -0.4095010757446289,
                    -0.033881351351737976
                ]
            ],
            "convs.1.bias": [
                -0.009093928150832653,
                -0.5662111639976501,
                1.2489160299301147
            ],
            "convs.1.lin.weight": [
                [
                    -0.2006032019853592,
                    -0.24944360554218292,
                    -0.03978409618139267
                ],
                [
                    -0.043175943195819855,
                    0.7656310200691223,
                    -0.7071928381919861
                ],
                [
                    0.7660455107688904,
                    0.5005072355270386,
                    -3.3447704315185547
                ]
            ],
            "lin_out.weight": [
                [
                    -0.5369459986686707,
                    0.06718345731496811,
                    -4.198667526245117
                ],
                [
                    -0.31197211146354675,
                    1.4037165641784668,
                    0.45798802375793457
                ],
                [
                    -0.34486064314842224,
                    0.7562037110328674,
                    0.6634942293167114
                ]
            ],
            "lin_out.bias": [
                -1.9346370697021484,
                -0.3673035502433777,
                -1.1205307245254517
            ]
        },
        "(3, 3, 'Failed', 0)": {
            "convs.0.bias": [
                -0.6707419157028198,
                -0.6541845202445984,
                -0.2764025032520294
            ],
            "convs.0.lin.weight": [
                [
                    2.3102495670318604,
                    2.177481174468994,
                    0.9981886148452759
                ],
                [
                    0.9639744758605957,
                    2.6803975105285645,
                    1.633959412574768
                ],
                [
                    2.2640507221221924,
                    0.11740299314260483,
                    1.9538406133651733
                ]
            ],
            "convs.1.bias": [
                -0.5564367175102234,
                0.17370820045471191,
                -1.5147426128387451
            ],
            "convs.1.lin.weight": [
                [
                    -1.0474867820739746,
                    -2.098499298095703,
                    1.6305400133132935
                ],
                [
                    5.108497619628906,
                    -3.8069396018981934,
                    -3.707364320755005
                ],
                [
                    -4.816953659057617,
                    3.620274066925049,
                    -1.9465172290802002
                ]
            ],
            "lin_out.weight": [
                [
                    1.5308388471603394,
                    1.2803844213485718,
                    -3.1654422283172607
                ],
                [
                    -6.2570576667785645,
                    1.0188419818878174,
                    0.835037887096405
                ],
                [
                    1.6273038387298584,
                    -5.059757709503174,
                    1.1587649583816528
                ]
            ],
            "lin_out.bias": [
                -8.97323989868164,
                -7.060685157775879,
                -6.725682258605957
            ]
        },
        "(3, 3, 3, 0)": {
            "convs.0.bias": [
                -1.6045337915420532,
                -0.6563416123390198,
                -1.1016368865966797
            ],
            "convs.0.lin.weight": [
                [
                    3.9193875789642334,
                    0.32748186588287354,
                    -0.24440960586071014
                ],
                [
                    -0.33618104457855225,
                    -0.27364301681518555,
                    3.0890228748321533
                ],
                [
                    0.1307029277086258,
                    2.664231300354004,
                    0.2715415060520172
                ]
            ],
            "convs.1.bias": [
                0.24471208453178406,
                0.44298961758613586,
                -1.0306037664413452
            ],
            "convs.1.lin.weight": [
                [
                    1.1119073629379272,
                    0.8959873914718628,
                    -7.439643859863281
                ],
                [
                    -6.350094318389893,
                    0.36638858914375305,
                    0.8825056552886963
                ],
                [
                    -0.2178398072719574,
                    3.0285532474517822,
                    -0.453643798828125
                ]
            ],
            "lin_out.weight": [
                [
                    0.7445572018623352,
                    -4.969857215881348,
                    -0.16133995354175568
                ],
                [
                    -6.001203536987305,
                    0.47830215096473694,
                    -0.5547676086425781
                ],
                [
                    0.5001602172851562,
                    0.3498162031173706,
                    7.767711162567139
                ]
            ],
            "lin_out.bias": [
                -8.546332359313965,
                -8.218486785888672,
                -7.250178337097168
            ]
        },
        "(0, 0, 'Failed', 0)": {
            "convs.0.bias": [
                0.5851708054542542,
                0.0,
                0.0
            ],
            "convs.0.lin.weight": [
                [
                    1.4803731441497803,
                    -1.0040051937103271,
                    -1.7598202228546143
                ],
                [
                    -0.11893665790557861,
                    -0.371387243270874,
                    -0.25811517238616943
                ],
                [
                    -0.5454230308532715,
                    -0.29618334770202637,
                    -0.8584144115447998
                ]
            ],
            "convs.1.bias": [
                1.5502071380615234,
                -0.4327225089073181,
                -0.5771619081497192
            ],
            "convs.1.lin.weight": [
                [
                    -1.4106658697128296,
                    0.06118416786193848,
                    0.8733838796615601
                ],
                [
                    -0.8286504149436951,
                    -0.2570685148239136,
                    0.8616006374359131
                ],
                [
                    -0.9594009518623352,
                    0.07224845886230469,
                    0.9635022878646851
                ]
            ],
            "lin_out.weight": [
                [
                    -1.8739030361175537,
                    -0.46618375182151794,
                    -0.38047826290130615
                ],
                [
                    1.343711256980896,
                    1.3878357410430908,
                    0.9757505655288696
                ],
                [
                    1.261884093284607,
                    0.9899672269821167,
                    1.3880467414855957
                ]
            ],
            "lin_out.bias": [
                -0.25462326407432556,
                0.3110179305076599,
                0.41735273599624634
            ]
        },
        "(2, 2, 'Failed', 0)": {
            "convs.0.bias": [
                -0.822711169719696,
                -0.17808465659618378,
                -0.1838790327310562
            ],
            "convs.0.lin.weight": [
                [
                    -0.21242155134677887,
                    3.046247959136963,
                    -0.20274272561073303
                ],
                [
                    0.14219024777412415,
                    -0.37681353092193604,
                    -0.47225984930992126
                ],
                [
                    -0.2560148239135742,
                    0.027946582064032555,
                    2.1465375423431396
                ]
            ],
            "convs.1.bias": [
                -2.2711939811706543,
                -0.0913887768983841,
                -0.6426464915275574
            ],
            "convs.1.lin.weight": [
                [
                    0.5788341760635376,
                    0.21145951747894287,
                    -0.5741724967956543
                ],
                [
                    2.723454236984253,
                    0.4719292223453522,
                    -0.10748688131570816
                ],
                [
                    0.22006194293498993,
                    0.4836099445819855,
                    2.7862253189086914
                ]
            ],
            "lin_out.weight": [
                [
                    0.4859662353992462,
                    -1.194954514503479,
                    -0.996744692325592
                ],
                [
                    2.9798781871795654,
                    8.595677375793457,
                    0.18834540247917175
                ],
                [
                    1.2313250303268433,
                    -0.8984859585762024,
                    6.033693790435791
                ]
            ],
            "lin_out.bias": [
                0.7037407159805298,
                -3.889019727706909,
                -3.51668119430542
            ]
        }
    }
}