{
    "experiment_config": {
        "mode": "simple",
        "num_categories": 6,
        "p": 0.3333333333333333,
        "num_nodes": 20,
        "motif_dim": 0,
        "num_train_samples": 5000,
        "num_test_samples": 1500,
        "batch_size": 16,
        "in_dim": 6,
        "hidden_dims": [
            6,
            2
        ],
        "lr": 0.01,
        "use_weighting": true,
        "importance": [
            15.0,
            10.0
        ],
        "phase1_epochs": 0,
        "phase2_epochs": 5,
        "device": "cpu",
        "model_type": "GIN",
        "loss": "BCE",
        "pooling": "gm",
        "gm_p": 1.0,
        "log_dir": "runs/AI/BCE/2/GIN/specify/6, 6, 2/specified",
        "file_path": "AI/BCE/2/GIN/specify/6, 6, 2/specified",
        "add_graph": false,
        "track_embeddings": false,
        "track_singular_values": true,
        "get_elements": false,
        "save": true,
        "seed": 0
    },
    "sparcity": 0.9455966764510513,
    "alignment index": 0.9631272456636674,
    "alignment index CI": [
        0.9631272456636674,
        0.9631272456636674
    ],
    "empty graph stats": 0.27734512090682983,
    "singular value ratio": [
        0.0,
        0.0
    ],
    "summary format:": "Key: (Num of active features, Num of accurate feature, Geometry, Collapsed). Loss, s.d. Loss, Count",
    "collapsed percentage": 0.0,
    "summary": {
        "(1, 1, 1, 0)": [
            0.2279251692891121,
            0.016272104044755306,
            2
        ]
    },
    "results": [
        {
            "Num of features": 6,
            "Num of active features": 1,
            "Num of accurate feature": 1,
            "Geometry": 1,
            "Collapsed": 0,
            "Loss": 0.2441972733338674,
            "Rank": 2,
            "Singular values": [
                4.599955081939697,
                3.4409308433532715
            ]
        },
        {
            "Num of features": 6,
            "Num of active features": 1,
            "Num of accurate feature": 1,
            "Geometry": 1,
            "Collapsed": 0,
            "Loss": 0.2116530652443568,
            "Rank": 2,
            "Singular values": [
                4.569679260253906,
                2.0856354236602783
            ]
        }
    ],
    "average embeddings summary": {
        "(1, 1, 1, 0)": {
            "(0, 0, 0, 1, 0, 0)": [
                -2.2160918712615967,
                0.8307868242263794
            ],
            "(0, 0, 0, 0, 0, 1)": [
                -0.9550395607948303,
                -3.2062745094299316
            ],
            "(1, 0, 0, 0, 0, 0)": [
                -1.5896486043930054,
                0.2659900188446045
            ],
            "(0, 1, 0, 0, 0, 0)": [
                -1.7106703519821167,
                0.38809528946876526
            ],
            "(0, 0, 1, 0, 0, 0)": [
                -2.070728063583374,
                0.8283730149269104
            ],
            "(0, 0, 0, 0, 1, 0)": [
                -2.3433189392089844,
                -0.2569466829299927
            ]
        }
    },
    "model summary": {
        "(1, 1, 1, 0)": {
            "convs.0.eps": [
                -0.1560884565114975
            ],
            "convs.0.nn.0.weight": [
                [
                    0.4083097279071808,
                    0.030465280637145042,
                    -0.3057091534137726,
                    -0.37233737111091614,
                    0.38044029474258423,
                    -1.3630813360214233
                ],
                [
                    -0.19074618816375732,
                    -0.00959395244717598,
                    0.6949424147605896,
                    0.9048228859901428,
                    -0.2351667284965515,
                    -0.1365654617547989
                ],
                [
                    -0.2098836898803711,
                    -0.05446483939886093,
                    -0.015531572513282299,
                    -0.20529425144195557,
                    0.771480917930603,
                    0.5237337350845337
                ],
                [
                    -0.21294623613357544,
                    -0.7757676243782043,
                    -0.7648170590400696,
                    0.08394637703895569,
                    -0.573226273059845,
                    -0.27422648668289185
                ],
                [
                    -0.31040310859680176,
                    -0.1417568325996399,
                    -0.3193848133087158,
                    -0.25205713510513306,
                    -0.804572343826294,
                    1.0465501546859741
                ],
                [
                    0.9233193397521973,
                    0.8149966597557068,
                    0.04956095665693283,
                    0.19597230851650238,
                    -0.11580902338027954,
                    -0.23492607474327087
                ]
            ],
            "convs.0.nn.0.bias": [
                -0.0453370064496994,
                -0.12892058491706848,
                -0.9949016571044922,
                0.7456172704696655,
                -1.0635544061660767,
                -0.3770125210285187
            ],
            "convs.0.nn.2.weight": [
                [
                    -0.10219673812389374,
                    -0.1988632082939148,
                    -0.142818883061409,
                    -0.33460915088653564,
                    -0.08684059977531433,
                    0.08726570755243301
                ],
                [
                    0.3613695800304413,
                    -0.03731810301542282,
                    0.9332038760185242,
                    -2.2058966159820557,
                    1.612804889678955,
                    -0.37311699986457825
                ],
                [
                    0.24913382530212402,
                    -0.3985031545162201,
                    0.7659466862678528,
                    0.5507036447525024,
                    0.8075043559074402,
                    -0.39928528666496277
                ],
                [
                    0.4388910233974457,
                    -0.03438582643866539,
                    1.0166128873825073,
                    0.2679023742675781,
                    0.28957876563072205,
                    -0.9361622333526611
                ],
                [
                    -0.3820600211620331,
                    -0.4823271334171295,
                    -0.27270880341529846,
                    0.0846203938126564,
                    0.030278658494353294,
                    -0.5788515210151672
                ],
                [
                    0.14266441762447357,
                    -1.2457679510116577,
                    -0.3050675094127655,
                    0.25039830803871155,
                    0.40431568026542664,
                    0.8999137878417969
                ]
            ],
            "convs.0.nn.2.bias": [
                -0.36634159088134766,
                -1.0450592041015625,
                -0.2614372968673706,
                0.12539781630039215,
                -0.37583619356155396,
                0.20511142909526825
            ],
            "convs.1.eps": [
                0.5452740788459778
            ],
            "convs.1.nn.0.weight": [
                [
                    -0.3364298343658447,
                    2.246767997741699,
                    0.5314338207244873,
                    0.5999507904052734,
                    -0.10355283319950104,
                    0.23826448619365692
                ],
                [
                    -0.28778815269470215,
                    -0.4684778153896332,
                    0.17862705886363983,
                    0.5899628400802612,
                    -0.2432805448770523,
                    -0.39424970746040344
                ]
            ],
            "convs.1.nn.0.bias": [
                -0.10508044064044952,
                1.0484161376953125
            ],
            "convs.1.nn.2.weight": [
                [
                    0.2957761287689209,
                    -1.5525472164154053
                ],
                [
                    -1.1512866020202637,
                    0.785774290561676
                ]
            ],
            "convs.1.nn.2.bias": [
                -0.6760589480400085,
                1.0961946249008179
            ],
            "lin_out.weight": [
                [
                    1.0207407474517822,
                    0.49278169870376587
                ],
                [
                    1.0320546627044678,
                    0.3882932662963867
                ],
                [
                    0.4970223605632782,
                    0.8648769855499268
                ],
                [
                    0.25647425651550293,
                    1.018884539604187
                ],
                [
                    -0.16050319373607635,
                    -0.22710691392421722
                ],
                [
                    1.7173817157745361,
                    -2.42730712890625
                ]
            ],
            "lin_out.bias": [
                0.45956194400787354,
                0.3864527642726898,
                -0.7279834747314453,
                -1.3312163352966309,
                -2.025141716003418,
                -1.3326846361160278
            ]
        }
    }
}